417 300
plane 0.119 0.35 0.235 -0.074 0.533 0.289 0.12 -0.355 0.504 0.13 0.367 0.24 -0.105 0.297 0.035 -0.109 0.086 -0.052 0.076 -0.186 0.052 0.083 -0.356 0.364 0.236 -0.161 -0.264 -0.12 0.002 0.286 -0.399 0.042 -0.004 0.152 -0.026 -0.113 -0.093 0.071 -0.037 0.46 -0.096 0.099 -0.285 0.068 -0.157 -0.059 0.276 0.093 0.054 0.001 0.125 0.018 0.539 0.17 -0.23 -0.093 0.292 -0.212 0.242 -0.392 0.347 0.332 -0.482 -0.016 0.511 -0.345 -0.075 0.37 0.322 0.11 0.03 0.389 -0.255 0.015 -0.076 -0.068 -0.219 -0.241 0.162 0.084 -0.151 -0.041 0.069 0.018 -0.26 -0.216 0.53 0.13 -0.183 -0.318 -0.09 -0.174 -0.241 0.007 -0.032 -0.081 0.069 -0.261 0.051 -0.369 -0.273 -0.05 -0.297 0.158 -0.087 -0.031 0.075 0.218 -0.14 0.169 0.01 0.071 0.09 -0.03 0.036 0.063 -0.033 0.301 -0.01 0.095 -0.116 -0.098 -0.085 0.208 0.112 -0.341 0.316 0.15 -0.416 0.088 -0.317 0.162 0.097 -0.252 -0.033 0.228 -0.158 -0.132 -0.186 -0.135 -0.036 -0.296 -0.023 -0.058 -0.034 0.236 -0.573 0.296 -0.179 0.018 0.164 0.024 0.049 -0.217 0.082 -0.273 0.385 -0.741 0.075 -0.414 -0.163 -0.084 -0.124 -0.094 -0.1 0.32 0.322 0.112 -0.329 -0.078 0.172 -0.271 0.085 -0.021 -0.177 -0.158 -0.019 0.161 -0.217 0.224 -0.092 0.002 0.331 -0.22 0.01 0.269 0.206 -0.251 0.026 0.282 -0.174 0.138 -0.086 -0.317 -0.339 0.056 -0.384 -0.563 -0.18 0.016 0.152 0.201 0.083 -0.259 0.051 -0.121 0.041 0.212 -0.282 0.009 0.092 0.361 0.08 0.179 0.113 -0.148 0.114 0.253 -0.03 -0.01 -0.111 -0.183 -0.09 0.048 0.137 0.107 0.103 0.154 -0.126 -0.045 0.018 -0.395 -0.042 -0.07 0.229 0.337 0.102 -0.212 -0.47 -0.548 -0.178 0.198 0.032 0.288 0.004 0.605 -0.115 0.026 0.297 -0.022 -0.1 -0.225 -0.058 0.428 -0.231 -0.307 -0.16 -0.211 -0.115 -0.126 -0.498 0.63 -0.091 -0.106 0.089 0.212 0.254 0.014 0.148 0.195 0.193 -0.02 -0.018 -0.282 -0.427 0.303 -0.211 0.055 -0.127 -0.137 -0.126 -0.314 -0.124 0.307 0.39 -0.16 0.015 -0.113 0.017 0.055 0.214 0.201 0.148 0.021 0.027 0.071 -0.126 0.151 0.456 0.023
stupid -0.019 0.389 0.213 0.111 -0.092 0.1 0.188 -0.043 0.075 -0.009 0.103 -0.122 -0.404 -0.07 0.156 -0.356 0.118 0.388 0.623 -0.402 0.012 -0.216 -0.087 0.873 -0.107 -0.282 0.311 -0.127 0.033 0.071 -0.084 0.174 -0.432 -0.279 0.089 -0.033 -0.072 -0.12 -0.154 -0.142 -0.109 0.146 -0.476 -0.016 -0.13 0.278 -0.057 -0.14 0.058 -0.054 -0.316 0.41 0.004 0.373 -0.342 -0.09 0.307 0.13 0.118 -0.257 0.298 -0.202 -0.341 -0.295 -0.127 -0.043 0.082 0.326 0.227 0.005 0.49 0.058 0.121 0.261 -0.377 -0.363 -0.237 0.085 -0.261 0.294 -0.027 0.112 -0.055 -0.129 -0.168 -0.151 0.133 0.024 -0.06 -0.23 0.034 0.054 -0.163 -0.008 0.069 -0.18 0.057 -0.31 0.027 -0.363 0.084 -0.122 -0.075 0.105 -0.019 -0.038 0.024 -0.253 -0.105 0.058 -0.064 -0.415 0.147 0.291 -0.027 0.098 -0.192 0.027 -0.038 0.261 -0.061 0.008 0.084 0.018 0.006 -0.248 0.217 0.06 0.155 -0.03 0.126 0.03 -0.261 0.162 0.067 -0.14 -0.004 -0.027 0.282 0.088 -0.161 0.147 0.016 0.346 0.265 0.3 0.047 0.19 0.04 -0.14 -0.18 0.084 -0.007 -0.151 0.349 -0.007 0.001 -0.191 -0.016 -0.121 0.138 0.031 -0.094 0.281 -0.028 -0.135 0.039 0.11 0.116 0.247 -0.081 0.031 -0.008 0.162 -0.061 0.19 -0.06 -0.245 -0.023 -0.142 0.113 0.227 0.03 0.006 0.282 0.124 -0.449 0.094 0.3 0.171 -0.509 0.238 0.004 0.202 -0.029 0.083 -0.26 -0.108 0.091 0.343 0.131 0.273 0.043 -0.166 0.075 -0.072 0.097 0.132 -0.409 -0.063 -0.133 -0.159 -0.006 0.278 -0.199 0.177 -0.087 0.036 -0.019 0.01 0.058 -0.178 0.07 0.082 -0.017 -0.025 0.083 -0.406 0.343 0.087 -0.065 0.161 0.05 -0.052 0.282 0.232 -0.192 0.204 -0.004 -0.022 0.016 0.42 -0.147 0.157 -0.23 0.113 -0.231 -0.018 0.241 -0.155 0.091 -0.114 0.017 0.092 0.079 -0.002 -0.325 -0.137 -0.493 -0.171 -0.072 -0.4 0.308 0.037 -0.004 0.06 -0.341 0.221 -0.057 0.108 0.085 -0.236 0.136 0.382 -0.118 0.354 -0.114 0.147 -0.19 -0.028 0.027 -0.155 -0.172 -0.009 0.462 0.164 0.15 -0.279 -0.211 0.431 0.015 -0.05 -0.192 -0.444 0.108 0.228 -0.424 -0.156 0.079 -0.123
egg -0.2 0.063 0.58 0.233 0.174 0.134 -0.161 0.22 -0.131 -0.015 0.103 0.304 0.169 0.055 0.457 -0.126 0.101 0.124 0.412 -0.241 -0.012 0.199 0.322 0.247 -0.253 -0.479 -0.393 0.049 -0.292 0.394 -0.186 0.252 0.287 -0.196 0.088 -0.053 0.296 -0.074 0.03 -0.049 -0.43 0.234 -0.084 0.125 -0.052 -0.524 -0.023 0.021 0.146 -0.178 0.032 0.175 0.342 0.238 -0.374 0.077 -0.119 -0.213 -0.169 0.232 -0.395 0.324 0.099 0.043 0.261 -0.181 -0.211 0.151 0.448 0.286 0.147 -0.012 -0.224 0.205 -0.224 -0.08 -0.283 -0.374 0.052 -0.588 -0.152 0.037 0.02 -0.078 -0.103 -0.24 0.347 0.187 -0.261 0.334 0.313 -0.355 0.124 -0.191 -0.251 0.175 -0.483 0.072 -0.003 -0.217 -0.13 -0.053 0.068 0.247 0.018 -0.31 0.01 0.047 0.172 -0.489 0.017 -0.246 0.126 0.166 0.156 0.204 0.421 0.424 0.191 -0.204 0.574 0.349 0.011 -0.134 -0.152 -0.059 0.079 -0.295 0.05 0.258 -0.328 0.123 -0.134 0.048 -0.212 -0.134 -0.625 -0.373 0.293 -0.126 -0.497 0.336 0.028 -0.186 0.291 0.187 -0.215 0.021 -0.461 0.392 0.216 -0.117 -0.149 -0.079 -0.054 0.4 -0.02 -0.28 -0.116 -0.169 0.562 0.387 -0.144 -0.274 -0.077 -0.317 0.162 0.176 -0.257 0.125 0.178 -0.191 -0.392 0.03 0.013 -0.091 -0.096 -0.287 -0.224 0.1 0.11 0.155 -0.13 -0.072 0.41 -0.139 -0.322 -0.132 0.305 0.04 -0.028 0.26 0.334 0.154 -0.137 -0.157 0.148 0.016 0.073 0.185 -0.164 -0.064 0.06 0.007 0.065 0.014 0.263 0.518 -0.144 -0.27 -0.223 -0.157 -0.274 -0.036 -0.003 0.185 0.32 -0.061 -0.053 -0.174 0.079 0.266 0.377 0.199 0.262 -0.001 0.066 0.176 -0.106 -0.231 0.322 -0.319 0.093 0.049 0.157 0.072 0.193 0.214 -0.046 0.374 0.141 -0.021 -0.012 0.281 0.239 -0.014 -0.208 -0.365 0.07 -0.061 0.071 0.055 0.26 -0.094 0.136 -0.32 0.048 0.185 -0.004 -0.307 0.052 -0.253 -0.43 0.131 0.113 0.215 0.042 0.065 -0.03 0.048 -0.345 0.304 0.124 -0.125 -0.054 0.127 -0.349 0.088 -0.454 0.37 0.344 -0.317 -0.093 0.027 0.046 -0.019 -0.055 0.034 -0.006 -0.024 -0.181 -0.037 -0.027 0.489 -0.227 -0.409 -0.659 -0.154 0.146 0.095
year 0.083 -0.017 0.237 0.063 0.143 0.085 0.027 0.023 -0.197 -0.123 0.176 -0.039 -0.5 -0.049 -0.156 -0.019 0.117 0.089 0.086 -0.163 0.179 0.005 -0.012 0.059 0.153 -0.37 -0.075 -0.199 0.083 0.07 -0.227 -0.031 -0.333 0.005 -0.089 -0.252 -0.229 0.108 0.128 -0.173 0.036 -0.048 0.103 -0.162 -0.006 -0.235 0.084 0.27 -0.081 -0.0 -0.065 -0.002 -0.066 0.141 -0.16 0.222 -0.235 -0.174 0.133 -0.108 0.101 -0.054 -0.111 -0.211 0.28 -0.129 0.162 0.063 -0.006 0.051 -0.073 -0.272 -0.164 0.309 0.233 -0.102 -0.066 -0.002 0.059 0.067 -0.115 0.122 0.045 0.082 0.043 -0.062 0.068 0.029 -0.23 -0.097 0.23 0.174 0.218 -0.029 -0.035 0.112 -0.1 0.029 0.122 0.004 0.293 -0.079 0.111 0.125 0.313 0.13 0.096 0.011 0.135 -0.128 -0.107 0.132 -0.288 -0.123 0.093 -0.055 -0.294 -0.173 -0.076 -0.245 -0.12 -0.011 0.044 0.095 -0.063 -0.258 -0.105 -0.093 -0.067 -0.166 -0.079 0.102 -0.098 -0.093 0.052 0.096 -0.107 0.052 0.207 -0.526 -0.015 0.127 -0.162 -0.196 0.131 0.234 -0.209 -0.221 0.21 0.056 0.221 -0.017 -0.045 0.349 0.033 0.114 -0.159 0.02 0.007 0.022 0.173 0.112 -0.245 0.042 -0.107 -0.087 0.126 0.133 -0.295 -0.105 -0.05 -0.012 0.048 0.185 -0.073 0.02 0.23 -0.081 0.013 0.277 -0.059 -0.188 0.35 -0.072 -0.008 -0.013 0.015 -0.035 0.16 0.012 0.02 0.252 0.189 0.068 0.176 0.086 -0.229 -0.04 0.084 0.144 0.094 0.355 0.135 0.069 -0.022 -0.199 0.015 0.039 0.019 -0.226 -0.041 0.162 -0.128 0.091 -0.252 -0.069 0.026 0.166 -0.177 -0.022 -0.162 0.204 0.104 -0.056 -0.21 -0.111 0.275 0.105 0.244 0.049 0.105 0.06 0.086 -0.243 0.053 0.055 -0.131 0.364 -0.074 -0.194 0.06 -0.066 -0.179 0.108 -0.077 0.12 -0.237 0.102 -0.025 -0.035 0.116 0.16 0.073 -0.139 0.088 -0.076 0.352 0.062 -0.011 0.181 0.124 -0.083 -0.05 -0.049 -0.01 0.253 -0.055 0.227 0.1 -0.047 0.099 -0.028 -0.013 -0.105 0.025 0.013 0.026 0.075 0.17 -0.049 0.021 -0.119 0.001 0.064 0.205 0.051 -0.185 -0.076 -0.098 -0.055 -0.093 -0.066 0.044 0.147 0.003 -0.199 0.077 -0.205 -0.033 0.117
psychiatry 0.123 0.126 0.505 0.487 -0.035 -0.273 -0.157 -0.016 -0.274 -0.077 0.036 0.037 -0.616 -0.225 -0.173 -0.342 0.479 0.498 0.393 -0.325 0.012 -0.137 -0.227 -0.107 0.13 -0.228 -0.074 0.044 0.061 -0.01 -0.393 0.24 -0.459 -0.291 0.147 0.29 0.525 0.022 -0.097 0.16 -0.511 0.431 0.189 -0.187 -0.439 -0.25 -0.445 -0.178 -0.444 0.113 -0.099 0.193 0.112 -0.534 -0.036 0.419 -0.055 0.216 0.194 -0.257 -0.268 0.257 0.0 0.056 0.046 -0.055 0.153 -0.129 0.132 -0.062 -0.199 0.225 -0.161 0.109 0.062 -0.011 -0.544 0.43 -0.267 0.086 -0.133 -0.164 0.227 0.252 0.058 0.581 0.243 0.052 -0.172 0.117 0.333 0.213 0.252 -0.154 0.146 -0.089 -0.04 -0.185 0.164 -0.201 -0.252 -0.286 -0.498 0.027 -0.023 -0.158 0.167 -0.162 -0.12 0.085 0.215 -0.286 -0.014 0.013 0.033 -0.265 -0.029 -0.582 0.114 -0.314 0.127 -0.193 0.169 -0.113 -0.048 0.097 -0.309 0.072 -0.267 0.066 -0.037 0.234 -0.004 0.097 -0.218 -0.12 0.152 -0.447 0.88 -0.295 -0.116 0.268 -0.219 -0.174 -0.116 0.187 -0.137 0.421 -0.103 0.722 0.01 0.166 -0.566 0.074 0.274 0.188 0.283 0.113 0.004 0.054 -0.05 0.065 -0.042 0.039 0.281 -0.393 -0.05 0.182 0.182 0.174 0.178 0.079 -0.115 -0.424 0.528 0.071 -0.379 -0.072 -0.032 0.473 -0.395 -0.469 0.468 0.325 0.059 0.035 0.2 0.3 0.067 0.175 0.002 0.243 -0.087 0.243 0.204 -0.132 -0.084 0.229 -0.553 -0.281 -0.136 0.16 0.113 0.308 0.044 0.283 0.194 0.248 -0.222 -0.185 0.419 -0.007 0.052 0.263 -0.434 -0.465 -0.233 -0.072 0.203 -0.369 0.233 0.023 0.421 -0.435 0.028 0.233 0.116 -0.18 0.19 -0.226 -0.076 -0.276 0.142 0.352 0.035 0.301 0.007 -0.382 -0.284 0.495 0.029 -0.065 -0.073 0.121 -0.039 -0.032 0.38 0.046 0.085 -0.234 -0.166 0.04 -0.127 0.136 0.518 -0.071 -0.137 -0.18 0.068 -0.296 -0.092 -0.218 0.087 -0.041 -0.095 0.033 0.259 -0.222 -0.168 0.256 -0.3 -0.049 -0.229 0.262 -0.052 0.013 -0.033 0.249 0.121 0.512 -0.348 -0.03 -0.143 -0.223 0.085 0.248 -0.077 -0.038 -0.142 0.249 0.409 0.062 -0.022 -0.23 -0.508 0.177 0.216 0.024 -0.132 -0.317
asylum -0.441 -0.172 0.026 -0.004 0.015 0.412 0.209 -0.38 0.005 -0.169 0.266 0.259 -0.349 -0.425 0.539 -0.163 0.132 0.156 -0.323 -0.286 0.665 0.131 -0.038 0.165 0.181 -0.435 -0.075 0.074 0.462 0.335 -0.25 -0.426 -0.443 -0.378 0.028 0.004 0.043 -0.206 -0.049 0.26 -0.145 0.029 -0.257 -0.215 -0.31 0.134 0.024 -0.358 -0.183 -0.251 -0.068 0.241 0.054 -0.022 -0.176 0.03 0.068 -0.271 0.067 0.091 0.505 0.097 0.281 -0.521 0.03 -0.251 -0.174 0.419 0.195 0.094 -0.044 0.203 -0.733 0.12 0.395 0.011 -0.013 0.393 0.078 0.039 0.216 -0.13 0.036 -0.099 0.025 0.22 0.21 -0.128 -0.255 -0.145 -0.104 -0.192 0.01 -0.182 -0.269 0.167 -0.086 0.102 0.321 -0.011 -0.016 -0.256 -0.108 0.283 -0.062 -0.094 0.334 -0.082 -0.071 -0.14 0.044 0.094 -0.439 -0.04 0.128 -0.102 -0.38 -0.28 0.334 -0.247 -0.014 0.37 0.104 0.185 0.47 -0.292 0.077 0.1 0.099 0.149 -0.075 0.565 -0.085 -0.36 0.138 0.346 0.189 0.29 0.316 -0.092 0.055 -0.001 -0.04 -0.352 -0.336 -0.136 -0.275 0.097 -0.224 -0.177 0.355 -0.04 -0.26 0.217 0.288 -0.206 0.254 -0.252 -0.018 -0.045 -0.2 -0.077 0.052 0.271 0.28 0.206 -0.272 0.122 0.326 -0.156 0.242 -0.106 0.109 0.513 -0.248 -0.349 -0.069 -0.162 0.131 0.165 0.232 -0.094 -0.131 0.496 0.121 0.099 0.474 0.124 0.064 0.437 0.231 0.184 -0.05 -0.089 -0.041 0.247 0.0 0.328 0.014 0.25 -0.001 0.422 0.103 0.031 0.22 0.163 -0.343 0.172 -0.018 0.276 0.011 0.051 -0.006 0.262 -0.152 0.156 0.017 -0.11 0.06 0.062 -0.084 -0.179 0.179 0.125 -0.001 -0.363 0.223 -0.016 0.264 -0.05 0.056 0.237 0.034 0.025 0.29 0.004 0.602 0.137 -0.127 -0.232 -0.112 0.017 -0.122 0.389 0.351 0.0 0.002 -0.227 0.296 -0.322 -0.105 -0.149 -0.115 0.15 -0.155 -0.135 0.06 -0.234 -0.193 0.074 -0.431 -0.184 0.029 -0.135 -0.119 0.773 0.632 -0.112 0.35 -0.0 0.432 -0.232 0.373 0.022 -0.038 -0.172 -0.115 0.411 0.06 0.07 0.251 0.266 0.077 -0.583 0.574 0.245 0.348 0.03 -0.386 0.016 -0.105 0.542 0.052 -0.502 -0.159 -0.134 0.093 -0.542 -0.219 0.083
manslaughter 0.685 0.01 0.3 0.373 -0.196 0.029 -0.138 0.183 0.225 -0.002 0.57 0.287 -0.641 0.095 -0.197 0.157 -0.49 -0.116 0.292 -0.082 0.156 -0.337 0.18 0.266 0.203 -0.249 0.087 -0.445 -0.06 -0.004 -0.266 0.055 -0.125 -0.299 -0.175 0.446 -0.21 -0.204 -0.419 0.773 -0.166 -0.13 0.011 -0.284 -0.367 -0.068 -0.118 -0.207 -0.213 0.355 -0.171 -0.054 0.223 -0.207 -0.397 -0.033 -0.34 0.455 0.389 -0.162 0.055 0.128 -0.727 -0.198 -0.156 0.092 -0.448 0.209 0.929 0.188 -0.036 0.495 0.269 0.098 0.089 0.086 -0.275 0.392 0.052 0.029 0.137 -0.393 0.02 0.343 -0.364 0.121 0.063 0.407 0.201 -0.219 0.216 0.087 -0.535 -0.279 -0.243 0.111 0.826 0.025 0.27 0.061 0.185 0.231 -0.166 -0.308 -0.057 0.173 0.352 -0.401 -0.422 0.157 0.475 0.253 0.137 0.047 -0.198 0.116 -0.175 0.024 0.414 -0.33 0.114 -0.368 0.615 0.02 -0.093 -0.166 -0.469 -0.135 -0.322 0.421 -0.062 0.237 0.288 0.08 0.094 -0.043 -0.131 -0.168 -0.049 -0.282 -0.189 -0.02 -0.058 -0.295 0.493 0.32 -0.184 0.376 0.147 -0.002 0.272 0.6 0.17 0.306 0.085 -0.099 -0.089 -0.138 0.258 0.115 0.667 0.128 -0.061 -0.65 0.526 -0.4 -0.304 -0.258 -0.596 0.143 0.28 -0.006 0.017 -0.379 0.017 -0.005 -0.186 -0.162 0.437 0.174 -0.029 -0.282 0.096 0.322 -0.029 -0.002 0.059 0.076 -0.11 0.19 0.371 0.456 0.392 0.11 0.358 0.24 0.304 -0.081 -0.216 -0.347 -0.04 0.324 0.443 -0.321 0.398 -0.067 -0.066 -0.216 -0.071 -0.364 -0.058 -0.183 -0.531 0.132 -0.133 -0.367 -0.57 0.144 -0.007 -0.149 0.204 -0.329 0.055 -0.111 -0.093 -0.579 -0.086 -0.032 0.161 -0.149 -0.456 -0.237 -0.075 0.233 0.327 -0.584 0.227 -0.353 -0.197 0.31 0.179 -0.377 -0.636 0.508 0.318 0.333 -0.051 0.095 0.613 -0.045 0.056 0.334 0.228 0.049 -0.104 0.183 -0.232 -0.245 0.049 0.334 -0.024 0.373 0.085 0.33 -0.192 0.648 0.06 -0.622 -0.271 0.177 0.089 0.193 0.306 0.033 0.181 -0.35 0.228 0.243 -0.434 -0.188 -0.311 0.277 0.001 0.06 0.298 -0.012 -0.029 0.239 0.119 0.2 0.015 0.265 -0.172 0.035 -0.138 -0.11 -0.057 -0.699 -0.17 -0.269
music -0.187 0.571 0.344 -0.01 0.097 -0.072 -0.127 0.351 -0.35 -0.203 -0.198 0.085 -0.093 -0.179 -0.049 -0.145 -0.147 -0.2 0.001 -0.028 -0.173 0.035 -0.078 0.147 0.038 0.036 0.017 -0.043 -0.06 0.093 -0.185 -0.324 -0.345 -0.008 0.039 0.234 -0.081 -0.028 -0.267 0.29 -0.168 0.312 0.049 0.272 -0.141 -0.17 -0.214 -0.208 -0.326 0.272 -0.194 -0.057 0.014 -0.129 -0.107 0.223 0.169 0.127 -0.04 0.286 0.385 -0.145 -0.125 -0.088 0.061 0.387 -0.078 -0.126 0.092 -0.035 0.128 -0.148 -0.19 0.146 -0.06 -0.232 -0.292 -0.083 0.138 0.257 -0.085 0.29 -0.16 0.238 0.01 -0.027 0.221 -0.382 0.36 -0.155 0.135 0.103 0.181 0.117 -0.279 -0.034 0.023 -0.245 -0.113 -0.343 0.129 -0.289 0.18 0.209 -0.233 -0.331 0.019 -0.271 -0.119 0.085 -0.28 0.243 -0.183 0.006 -0.031 -0.122 0.015 0.213 0.458 0.067 0.268 -0.209 -0.14 -0.029 0.457 -0.25 -0.305 0.265 -0.628 -0.142 -0.074 0.117 -0.181 -0.103 -0.453 0.29 -0.127 -0.148 0.217 -0.387 -0.064 0.026 0.327 -0.008 -0.053 0.412 -0.332 -0.023 0.111 0.246 0.201 -0.452 -0.06 0.228 -0.126 -0.076 0.219 -0.115 -0.181 0.056 -0.272 -0.037 -0.077 0.282 -0.173 -0.092 0.217 -0.093 -0.196 0.018 0.096 0.373 0.051 0.199 -0.045 0.104 -0.083 -0.118 0.291 0.26 -0.159 0.257 0.3 0.246 -0.031 0.361 -0.123 0.134 0.361 -0.075 0.302 0.06 0.149 0.222 -0.088 0.09 -0.044 0.155 -0.05 0.034 -0.072 0.016 0.144 -0.105 0.093 -0.039 -0.049 0.367 -0.275 0.08 -0.021 0.193 0.038 -0.033 0.252 -0.082 -0.134 0.024 -0.091 -0.073 0.37 0.276 0.104 -0.315 0.14 -0.025 -0.165 -0.35 0.168 -0.182 0.309 -0.123 0.003 -0.299 0.079 0.164 -0.382 0.37 -0.292 0.169 -0.143 0.116 -0.071 0.301 0.202 -0.067 0.159 -0.074 0.092 0.085 0.056 0.277 0.26 -0.326 -0.281 0.096 0.139 0.074 -0.03 -0.119 0.015 -0.469 -0.057 0.097 0.251 0.095 -0.088 -0.198 0.147 0.154 0.141 -0.235 0.205 0.295 -0.142 -0.23 -0.106 0.187 0.015 -0.189 -0.056 0.224 0.105 -0.084 0.065 0.384 0.111 0.159 -0.26 0.186 -0.095 0.211 0.063 -0.163 -0.133 -0.035 -0.127 -0.187 0.062 0.334
record -0.168 0.423 0.207 0.182 0.289 0.24 0.238 0.266 -0.195 -0.228 0.344 0.209 -0.498 -0.002 0.186 -0.106 0.124 0.169 0.086 -0.22 0.203 0.118 0.202 0.023 0.154 -0.101 -0.058 -0.004 -0.234 0.082 -0.18 -0.236 -0.092 -0.107 0.347 -0.446 0.17 -0.25 0.188 -0.061 -0.052 -0.168 0.162 -0.216 0.087 -0.176 -0.11 -0.024 -0.108 0.331 -0.454 -0.135 0.029 0.163 -0.1 0.427 0.142 0.152 0.027 -0.075 0.207 0.167 0.09 0.141 0.16 -0.136 0.305 0.219 -0.039 -0.106 0.132 0.254 -0.19 0.031 0.294 -0.154 -0.034 -0.324 0.029 0.377 -0.368 0.105 -0.0 0.29 0.154 -0.171 0.136 -0.093 0.211 -0.265 0.243 -0.019 0.226 -0.016 0.126 0.203 0.23 0.21 -0.094 -0.202 0.12 -0.338 0.302 0.005 0.233 0.134 0.065 -0.225 0.181 0.136 -0.241 0.01 -0.539 -0.398 -0.236 0.055 -0.125 0.023 -0.423 -0.032 0.147 0.081 0.083 0.039 0.128 0.039 -0.051 -0.105 -0.535 0.064 -0.233 -0.132 -0.045 0.073 -0.044 0.249 -0.249 -0.093 0.108 -0.359 -0.026 0.072 -0.105 -0.244 0.096 0.285 0.121 -0.253 -0.044 -0.023 0.309 -0.076 -0.059 0.378 -0.159 0.164 -0.022 0.018 -0.075 0.113 -0.116 0.232 0.13 -0.096 0.062 -0.149 -0.084 0.145 -0.027 -0.034 -0.013 0.088 -0.214 0.04 -0.052 -0.017 0.079 -0.107 -0.216 -0.045 -0.194 -0.369 -0.026 0.083 0.126 -0.071 0.056 -0.167 -0.061 0.028 -0.413 0.157 0.16 -0.009 -0.079 0.237 -0.43 0.236 -0.147 -0.107 0.072 -0.048 -0.008 0.108 0.31 -0.024 0.079 0.13 -0.036 -0.279 0.244 0.073 0.322 -0.303 0.141 -0.19 -0.236 0.086 0.184 0.065 -0.086 0.185 -0.119 -0.176 -0.057 -0.218 -0.1 0.346 0.065 0.184 -0.119 0.018 -0.264 -0.083 0.26 0.22 0.106 -0.043 -0.254 -0.087 -0.179 0.277 0.023 -0.066 -0.418 0.162 -0.275 -0.111 -0.22 -0.094 0.107 0.043 0.416 -0.177 0.19 -0.17 -0.0 -0.163 0.169 0.151 -0.048 0.181 0.095 -0.037 0.102 0.249 -0.274 0.153 0.01 -0.021 0.302 -0.016 -0.078 -0.011 -0.149 0.005 0.241 0.082 -0.022 -0.025 -0.419 0.001 0.232 -0.058 0.118 0.105 -0.097 0.077 0.093 0.087 0.082 -0.152 -0.369 0.05 -0.148 -0.044 0.003 -0.152 0.164 -0.011
energy 0.047 -0.062 0.098 0.563 -0.047 -0.051 0.09 -0.144 -0.175 -0.244 -0.114 -0.28 0.213 0.062 -0.136 -0.106 0.232 -0.231 0.198 0.198 0.069 0.082 -0.08 -0.088 0.519 -0.335 -0.084 0.255 0.08 -0.093 -0.046 0.066 -0.094 -0.055 -0.092 -0.049 -0.127 -0.04 -0.097 0.021 0.245 -0.344 -0.053 -0.181 -0.141 0.05 -0.068 -0.203 -0.28 0.104 -0.232 0.123 -0.253 0.007 -0.405 0.048 -0.026 -0.04 0.146 -0.134 -0.245 -0.006 -0.426 0.148 0.012 -0.515 -0.004 0.031 0.215 0.302 -0.08 -0.052 -0.119 0.104 -0.208 -0.401 -0.569 -0.259 -0.113 0.13 0.375 0.063 0.131 -0.21 -0.098 -0.257 -0.002 -0.236 0.235 -0.258 -0.092 -0.148 0.281 0.241 0.238 0.274 0.128 0.13 0.038 -0.071 0.081 0.032 0.18 0.046 0.105 0.016 -0.125 -0.052 0.266 0.316 -0.088 0.466 0.198 -0.104 -0.285 0.144 0.089 -0.017 -0.125 0.121 -0.099 0.295 0.069 0.038 -0.031 0.073 -0.235 0.236 0.003 -0.165 -0.09 0.263 0.109 -0.114 0.069 0.1 -0.141 0.056 0.233 -0.354 -0.426 0.081 0.059 0.194 -0.407 0.332 -0.574 0.198 0.328 -0.105 -0.023 -0.008 -0.127 0.159 0.047 -0.229 0.125 -0.465 -0.264 -0.171 0.024 0.053 -0.187 -0.385 0.147 0.04 -0.002 0.315 -0.211 -0.054 -0.148 0.15 -0.27 -0.157 0.039 -0.212 -0.088 -0.195 -0.27 0.056 -0.356 0.356 0.097 0.229 0.306 0.212 -0.02 0.205 0.033 -0.025 -0.038 -0.185 -0.194 0.185 -0.061 0.239 -0.212 0.105 -0.42 -0.158 -0.376 0.144 -0.202 -0.21 0.229 0.05 0.089 0.317 -0.106 0.197 0.457 0.339 0.275 0.226 -0.218 -0.135 -0.243 0.151 0.026 -0.499 0.334 -0.056 0.326 0.106 -0.379 -0.106 0.212 0.086 0.429 0.088 -0.02 0.071 0.096 -0.052 0.257 0.408 -0.077 0.387 0.065 -0.037 -0.039 -0.061 0.161 0.043 -0.252 -0.106 -0.314 -0.279 -0.174 -0.102 -0.031 0.085 0.033 -0.472 -0.285 -0.093 -0.121 -0.135 -0.034 0.032 0.293 0.172 0.067 -0.266 0.186 0.235 0.099 0.205 -0.006 -0.097 -0.121 0.115 0.375 -0.249 0.058 -0.39 0.24 0.15 0.044 0.161 -0.003 -0.005 0.169 0.204 0.047 0.035 0.095 -0.403 -0.3 0.144 0.235 0.112 -0.054 -0.346 0.015 0.069 -0.041 -0.091 -0.075 0.07
announcement -0.049 -0.228 0.144 -0.156 -0.163 0.309 0.149 0.061 0.02 0.445 0.476 -0.023 -0.263 0.073 -0.264 -0.096 -0.127 -0.018 0.296 -0.046 0.184 0.244 0.1 -0.096 0.124 -0.356 -0.499 0.238 0.048 -0.026 0.157 0.042 -0.17 -0.137 -0.244 0.105 -0.071 0.18 -0.117 0.418 -0.184 -0.224 -0.304 -0.113 -0.205 -0.116 -0.055 -0.025 -0.219 0.026 -0.172 0.052 0.033 0.204 0.004 0.213 -0.138 -0.127 0.141 -0.11 -0.107 0.157 0.172 -0.117 -0.02 0.008 0.371 0.24 0.255 -0.204 0.241 -0.003 -0.173 0.261 0.304 -0.578 -0.6 -0.387 -0.059 0.015 -0.232 0.094 0.249 0.042 -0.065 -0.179 0.169 -0.114 0.075 -0.101 0.321 0.151 0.292 -0.031 0.102 -0.085 0.053 -0.119 -0.052 -0.078 0.234 -0.178 -0.372 -0.118 0.049 0.25 0.004 -0.137 -0.114 -0.219 0.049 0.053 0.13 -0.153 0.025 0.017 -0.155 -0.0 -0.057 0.023 0.107 0.278 -0.3 0.253 0.203 -0.115 -0.017 -0.109 0.128 0.343 -0.149 -0.042 0.187 0.079 0.095 0.006 -0.079 -0.134 0.423 -0.189 -0.113 0.047 -0.043 -0.228 0.188 0.001 -0.49 -0.134 0.322 -0.171 -0.039 -0.038 -0.007 -0.04 -0.022 0.117 0.218 -0.07 0.035 -0.148 -0.391 0.117 -0.05 -0.12 0.029 -0.153 0.277 0.114 -0.14 -0.001 -0.088 0.041 -0.16 -0.14 0.299 0.056 0.287 0.082 0.252 0.195 -0.15 -0.161 0.36 -0.081 0.265 0.297 0.098 -0.075 -0.059 0.114 -0.142 0.064 -0.279 -0.096 0.221 0.287 -0.369 -0.057 0.028 0.049 0.072 0.24 0.079 0.003 0.076 -0.256 -0.019 0.299 -0.066 0.037 0.202 0.141 0.032 0.069 -0.095 -0.284 -0.073 0.281 0.114 -0.235 -0.087 0.286 0.011 -0.169 0.012 -0.141 0.135 0.056 -0.045 -0.294 -0.036 0.1 0.122 -0.399 -0.207 0.003 0.175 0.002 0.075 -0.508 -0.517 -0.078 0.18 0.104 0.044 -0.001 -0.248 0.196 0.109 -0.145 -0.053 0.075 -0.171 0.103 0.041 0.043 0.037 0.057 -0.106 -0.254 0.221 0.235 0.029 0.144 -0.046 -0.022 -0.103 -0.11 0.374 -0.027 -0.329 0.136 0.105 0.139 -0.096 0.36 0.267 -0.131 0.239 0.128 0.181 0.201 0.237 0.367 0.193 -0.075 0.094 0.326 -0.153 -0.015 0.247 0.053 -0.172 -0.213 0.202 -0.012 -0.477 0.13 0.022 0.132
mile -0.174 -0.127 -0.288 0.342 0.054 0.235 -0.091 0.121 -0.285 -0.164 0.098 -0.051 -0.365 -0.008 0.37 0.229 0.229 -0.383 0.519 -0.111 -0.224 0.485 -0.112 -0.064 0.115 -0.336 0.209 -0.095 -0.08 0.116 -0.158 0.18 -0.077 -0.03 -0.328 -0.265 -0.045 0.25 -0.1 -0.101 0.04 0.21 0.055 0.08 -0.234 0.181 0.228 0.247 0.253 -0.122 0.301 0.215 0.229 0.192 -0.236 0.109 -0.123 -0.093 -0.089 -0.142 0.195 0.4 -0.318 0.012 0.463 -0.218 0.091 0.387 0.234 -0.333 -0.246 0.211 0.112 0.181 0.347 0.049 0.034 -0.027 0.172 0.17 0.031 -0.345 0.103 -0.108 0.17 -0.305 0.26 -0.105 -0.039 -0.033 0.09 -0.102 -0.375 -0.302 -0.07 0.298 0.304 0.035 -0.213 -0.158 0.098 0.197 -0.195 0.013 0.098 0.174 0.059 -0.183 0.3 -0.129 0.185 -0.071 -0.315 -0.184 -0.279 0.126 -0.112 0.077 -0.188 -0.273 -0.103 0.136 0.002 -0.085 0.226 -0.142 -0.001 -0.271 -0.428 0.276 -0.169 -0.165 -0.062 0.222 -0.026 0.324 -0.383 -0.14 0.411 0.191 -0.305 -0.219 -0.017 -0.147 0.114 0.099 -0.182 -0.137 0.431 0.444 0.232 -0.144 0.078 0.221 -0.054 -0.401 0.097 -0.293 -0.195 -0.178 0.001 0.022 -0.032 -0.008 0.104 -0.376 0.021 0.12 -0.452 -0.292 -0.131 -0.218 0.125 -0.055 0.215 0.145 0.219 0.112 0.028 0.117 -0.295 -0.079 -0.431 -0.042 0.552 0.341 0.239 0.0 0.482 -0.051 0.467 0.34 0.203 -0.15 -0.078 0.092 -0.244 -0.268 -0.041 0.27 0.432 -0.419 0.392 0.197 0.077 -0.098 0.089 0.114 0.157 0.077 0.351 0.1 -0.132 0.34 -0.176 -0.179 0.301 0.016 -0.343 -0.142 0.39 -0.048 0.055 0.37 0.002 -0.227 0.137 0.046 0.01 0.057 0.129 -0.218 -0.159 -0.011 0.184 0.016 -0.104 0.294 -0.026 -0.384 -0.275 -0.116 0.005 0.224 -0.045 0.02 -0.185 0.054 0.024 0.313 0.104 0.305 0.057 -0.145 -0.423 -0.048 0.223 0.391 0.043 -0.151 -0.222 0.216 -0.15 0.103 -0.164 0.055 0.159 -0.172 -0.253 -0.033 0.167 -0.348 0.022 -0.187 -0.059 -0.229 0.235 0.074 -0.252 -0.036 -0.277 -0.165 0.069 -0.046 0.085 -0.005 -0.398 0.219 0.084 -0.036 -0.064 -0.566 0.008 0.088 0.268 0.057 0.108 -0.381 -0.139 0.053
airport -0.063 -0.034 0.309 -0.152 0.292 -0.081 -0.22 -0.358 0.632 -0.071 0.116 0.103 -0.091 -0.03 -0.259 -0.345 0.038 -0.033 -0.02 -0.271 0.05 0.242 -0.248 0.382 0.115 0.145 -0.164 -0.043 -0.076 0.413 -0.202 -0.361 -0.192 0.07 -0.328 0.253 -0.059 -0.113 0.041 0.103 0.225 0.115 -0.279 -0.091 -0.109 0.324 0.308 -0.065 -0.016 -0.111 -0.407 0.049 0.384 0.353 -0.157 0.008 0.005 -0.1 0.026 -0.299 0.362 0.201 -0.543 -0.093 0.495 0.183 0.083 0.248 0.232 -0.189 0.07 0.473 -0.535 0.022 0.143 -0.081 -0.157 -0.043 0.134 -0.075 -0.08 -0.098 0.227 -0.177 0.114 -0.073 0.348 0.263 0.094 0.103 -0.05 0.049 -0.126 0.395 -0.052 0.125 0.256 -0.069 0.221 -0.272 0.256 0.242 -0.23 0.049 0.222 0.129 0.105 0.321 -0.03 0.311 0.194 0.178 -0.297 -0.21 -0.145 0.014 -0.313 0.025 0.154 0.0 -0.382 0.084 -0.078 0.212 -0.026 -0.296 0.018 0.278 -0.044 0.416 -0.134 0.083 0.279 0.045 0.137 0.419 0.105 -0.311 0.186 0.02 -0.056 -0.042 0.133 0.34 -0.395 0.267 -0.41 -0.011 -0.177 0.085 0.364 -0.333 0.082 -0.187 0.256 -0.086 0.369 0.088 0.148 -0.04 -0.306 0.028 0.026 0.052 0.179 0.363 0.256 0.026 -0.206 -0.335 0.196 0.03 0.156 0.027 0.059 -0.118 -0.39 0.217 -0.051 0.369 -0.359 -0.141 0.199 -0.295 -0.02 0.485 0.209 -0.117 0.145 0.038 -0.105 -0.017 0.104 -0.56 -0.44 -0.061 -0.258 -0.345 -0.02 -0.041 0.031 -0.159 -0.095 0.238 0.023 -0.138 -0.017 0.235 -0.304 0.063 0.143 0.063 0.012 0.701 -0.046 -0.35 -0.087 -0.032 -0.151 -0.112 -0.044 -0.135 0.205 -0.153 -0.256 0.236 0.351 -0.275 -0.068 -0.333 -0.184 -0.492 0.015 -0.088 0.367 0.404 0.021 -0.261 -0.213 -0.497 -0.002 -0.111 -0.099 0.232 0.148 0.521 0.121 -0.131 0.234 -0.017 -0.124 -0.132 -0.086 0.32 -0.289 -0.168 -0.284 -0.047 -0.134 -0.262 -0.251 0.213 -0.35 -0.099 -0.173 0.477 0.034 -0.083 0.005 -0.159 0.077 0.017 0.638 -0.213 -0.105 -0.01 -0.05 0.157 -0.143 -0.17 -0.224 -0.214 0.066 0.264 0.603 -0.122 -0.109 -0.318 0.144 0.338 0.579 -0.093 -0.075 0.259 -0.071 -0.117 0.048 -0.152 0.252 -0.102
population -0.204 -0.278 0.211 -0.118 -0.081 0.126 -0.065 -0.229 0.001 -0.44 -0.205 -0.037 -0.565 -0.063 0.501 -0.128 0.018 0.049 0.504 -0.15 0.122 -0.007 -0.225 0.329 0.061 -0.149 -0.322 -0.348 0.277 0.032 -0.162 0.25 -0.13 -0.195 0.245 -0.013 0.343 -0.207 -0.106 0.277 -0.349 0.03 -0.084 0.152 -0.091 0.046 0.171 0.062 -0.278 0.054 0.099 0.201 0.15 -0.018 -0.171 0.222 -0.178 0.041 0.535 0.307 -0.075 0.155 -0.433 -0.286 0.092 -0.554 -0.227 0.077 -0.297 -0.438 0.072 0.005 -0.193 -0.036 -0.087 -0.109 -0.175 -0.011 0.269 0.051 0.052 -0.173 0.038 -0.506 0.239 -0.196 -0.014 0.111 -0.11 0.463 -0.156 -0.108 -0.097 -0.508 -0.19 0.337 -0.026 0.369 0.372 -0.036 0.277 -0.058 0.015 0.034 0.045 0.195 -0.242 -0.237 0.197 -0.019 0.144 0.218 0.002 -0.177 -0.133 -0.512 0.029 -0.039 0.04 -0.335 -0.003 0.292 -0.234 0.176 -0.398 -0.184 -0.264 0.123 -0.254 0.001 -0.035 0.424 -0.179 0.041 0.36 0.013 -0.5 0.011 0.377 -0.298 -0.041 0.052 -0.001 -0.021 -0.022 0.07 -0.363 0.241 0.127 0.394 0.244 0.058 0.015 0.267 -0.044 0.055 -0.32 -0.022 0.005 0.108 0.02 0.18 -0.129 0.067 -0.178 0.099 0.22 0.278 -0.162 0.26 0.17 -0.067 0.115 0.163 0.35 -0.156 -0.026 -0.06 -0.147 0.077 -0.445 0.035 0.305 -0.262 0.542 0.271 -0.151 -0.097 0.015 0.139 0.006 0.155 0.173 0.251 -0.021 -0.041 -0.256 0.124 0.045 0.245 0.246 0.031 0.262 0.144 -0.041 0.247 0.022 -0.0 -0.028 -0.078 0.123 0.134 0.105 -0.12 -0.249 -0.142 0.085 -0.029 0.09 0.046 -0.15 0.004 -0.226 0.406 -0.058 0.085 0.025 -0.163 0.293 0.006 -0.655 0.106 -0.127 -0.118 0.082 0.184 -0.175 0.094 -0.129 -0.111 0.087 -0.271 0.18 -0.026 0.109 0.301 0.054 -0.346 0.183 -0.261 0.138 -0.161 -0.205 -0.078 -0.109 -0.153 0.116 0.27 -0.048 -0.17 0.012 -0.22 -0.419 -0.169 0.108 0.046 0.081 -0.074 0.298 0.121 -0.199 -0.03 0.408 0.34 0.03 0.02 -0.267 0.018 0.148 0.105 0.112 -0.247 -0.208 -0.357 0.024 -0.033 0.152 -0.231 -0.225 -0.259 0.099 0.288 -0.11 -0.267 -0.179 0.008 0.07 -0.045 -0.356 -0.0
planning 0.183 -0.284 -0.141 0.108 0.093 0.319 0.053 0.069 0.172 0.228 0.215 -0.092 0.022 -0.155 -0.244 -0.302 0.1 0.012 0.313 -0.126 0.288 0.024 0.121 0.287 0.241 -0.159 0.154 -0.129 -0.032 -0.098 -0.167 -0.146 -0.76 -0.032 -0.285 -0.037 -0.174 0.077 -0.005 0.124 0.084 -0.163 0.032 -0.356 -0.051 -0.129 -0.065 -0.114 0.046 0.061 -0.239 0.155 -0.239 0.036 -0.088 0.225 0.053 -0.241 -0.008 -0.266 0.138 -0.0 -0.428 -0.049 0.29 -0.154 0.229 0.197 -0.062 0.03 0.077 0.052 0.067 0.25 0.065 -0.529 -0.178 0.257 0.151 -0.038 -0.128 0.128 0.152 -0.087 0.09 -0.088 0.379 -0.08 0.057 -0.101 0.029 0.062 0.018 0.033 -0.08 0.44 0.099 0.019 -0.085 -0.213 -0.008 0.295 -0.032 0.177 0.077 -0.012 0.172 -0.096 0.101 -0.168 0.084 0.319 -0.142 0.194 0.2 -0.28 -0.122 -0.151 0.24 0.033 -0.187 -0.018 -0.123 0.38 0.12 0.051 -0.048 0.064 -0.115 0.16 -0.252 0.169 0.119 -0.078 0.001 -0.336 -0.118 0.019 0.435 -0.213 0.115 -0.08 0.034 -0.277 0.208 -0.124 -0.004 -0.014 0.088 0.019 -0.2 0.068 -0.425 0.216 0.058 0.291 0.037 0.027 0.042 -0.056 0.012 -0.177 -0.072 0.008 0.123 -0.098 0.112 0.0 0.037 -0.137 0.153 0.292 -0.24 -0.048 0.225 -0.028 -0.092 0.158 -0.13 0.034 -0.124 -0.013 0.067 0.139 0.068 0.036 0.297 0.041 -0.064 -0.109 -0.045 0.087 0.126 0.001 0.25 0.359 -0.018 -0.103 0.041 -0.093 0.007 -0.172 -0.217 0.039 -0.041 -0.124 -0.056 0.252 -0.327 0.211 -0.076 0.058 -0.053 0.12 0.033 0.016 0.133 0.187 -0.075 -0.052 -0.227 -0.044 -0.052 -0.046 -0.155 -0.086 0.007 0.051 0.232 -0.209 -0.205 -0.119 0.007 -0.219 -0.088 0.114 0.19 -0.079 -0.051 -0.153 0.219 0.1 0.168 0.007 -0.063 -0.222 0.021 -0.25 0.187 0.075 -0.045 0.122 0.19 0.091 -0.044 -0.194 -0.15 0.079 -0.286 0.028 -0.042 -0.101 0.091 -0.11 -0.208 0.23 0.114 -0.229 0.143 -0.264 -0.014 0.117 0.037 0.016 -0.26 -0.044 0.161 -0.133 0.009 0.027 -0.056 -0.156 0.32 -0.095 0.393 -0.2 -0.006 -0.189 -0.2 0.04 0.052 0.148 0.121 -0.066 -0.15 0.22 -0.322 -0.085 0.179 0.001
canyon -0.164 0.075 0.007 -0.013 0.438 0.074 0.15 -0.144 0.323 -0.235 0.115 0.138 0.078 0.45 0.068 0.153 -0.06 -0.209 0.056 0.307 -0.081 0.299 -0.09 0.061 0.013 -0.014 0.152 0.458 -0.072 0.289 -0.247 0.124 0.217 0.005 0.326 0.198 -0.005 -0.041 -0.171 0.131 0.368 0.274 -0.006 0.566 -0.111 0.279 0.437 0.088 0.066 0.313 0.157 0.05 0.085 -0.086 -0.319 0.438 0.066 0.105 -0.217 -0.134 0.378 0.141 -0.51 0.009 0.372 -0.495 0.065 0.119 -0.012 -0.283 0.025 -0.001 0.315 0.28 -0.124 0.168 -0.126 0.448 0.536 -0.018 -0.508 -0.17 0.167 -0.577 0.118 -0.192 0.2 -0.206 0.373 -0.141 -0.039 -0.004 -0.202 0.094 -0.161 0.236 0.221 -0.01 -0.05 -0.216 -0.107 -0.033 -0.192 0.238 0.492 0.29 0.148 -0.201 -0.1 -0.152 -0.03 -0.304 -0.423 0.116 -0.32 0.149 -0.166 0.284 0.195 -0.278 -0.08 -0.093 0.036 -0.113 0.494 -0.092 0.115 0.05 -0.328 0.055 0.005 0.026 0.191 -0.176 -0.166 -0.073 -0.147 -0.36 0.318 -0.443 -0.247 -0.032 0.055 -0.002 -0.081 0.593 -0.019 -0.074 0.081 0.206 0.184 0.057 0.393 0.429 0.032 0.091 0.079 -0.097 0.51 0.024 -0.17 0.293 0.166 -0.214 0.115 -0.224 -0.291 0.024 -0.489 -0.115 -0.225 -0.268 0.118 0.295 -0.155 0.264 0.008 -0.106 0.328 0.332 -0.28 -0.095 -0.21 -0.091 0.398 0.387 -0.352 0.386 0.042 -0.319 0.44 -0.097 0.255 -0.108 0.401 0.434 -0.076 -0.28 0.086 0.447 0.095 -0.014 0.083 0.11 0.281 0.246 -0.353 0.432 0.074 0.352 0.371 0.207 -0.275 0.093 -0.265 0.011 -0.057 0.286 0.002 -0.305 0.419 -0.136 -0.128 0.05 -0.264 0.036 0.312 0.11 -0.152 -0.19 0.229 -0.344 -0.402 0.124 -0.158 0.163 0.157 0.055 0.209 -0.272 0.076 0.568 0.01 0.302 0.296 -0.065 -0.352 0.511 -0.0 0.024 0.415 0.177 0.085 -0.33 -0.099 0.38 -0.053 0.149 -0.071 0.297 0.13 0.143 0.128 0.273 0.091 0.237 0.018 -0.356 -0.154 0.09 0.373 -0.137 0.021 -0.293 -0.287 -0.242 0.178 0.019 -0.294 -0.151 -0.348 0.081 -0.176 0.093 0.473 -0.15 0.135 -0.054 -0.011 0.168 -0.054 -0.617 0.396 0.183 0.04 0.167 0.141 -0.127 0.096 -0.07
delay 0.146 0.007 -0.25 -0.075 0.207 -0.073 0.153 -0.03 0.13 0.153 0.168 0.183 -0.097 0.004 -0.078 0.006 -0.116 -0.027 0.015 0.003 0.073 -0.242 0.131 -0.038 0.144 -0.282 -0.201 -0.016 -0.034 -0.277 0.223 0.188 -0.415 -0.336 -0.19 -0.287 0.007 -0.084 -0.069 0.085 0.239 -0.006 -0.0 -0.075 -0.303 -0.058 -0.275 0.274 -0.145 -0.11 -0.133 0.183 -0.028 -0.002 -0.003 0.226 0.153 -0.121 0.048 0.084 -0.134 -0.038 -0.302 -0.301 0.201 -0.044 0.232 0.37 0.143 -0.132 0.032 -0.107 -0.28 0.118 0.002 -0.252 -0.365 -0.139 0.016 -0.275 -0.419 -0.058 0.0 -0.308 -0.161 -0.08 0.231 -0.26 0.029 -0.274 0.174 0.043 0.076 -0.043 0.218 0.388 0.064 0.262 0.191 -0.009 0.075 0.023 -0.005 -0.123 -0.186 -0.248 0.244 -0.066 -0.153 -0.242 -0.099 0.023 0.148 -0.096 0.212 0.033 -0.171 0.264 0.007 -0.191 0.092 -0.106 -0.155 -0.069 0.055 0.05 -0.178 -0.098 0.055 0.379 0.106 -0.17 0.088 0.012 -0.177 -0.116 -0.032 0.131 0.275 -0.318 -0.224 0.038 0.245 -0.081 0.48 0.095 -0.071 0.088 -0.128 -0.178 0.198 -0.119 -0.208 0.045 0.128 0.095 0.007 0.192 0.144 -0.188 -0.185 0.011 -0.023 -0.044 -0.158 0.005 -0.138 0.301 0.214 -0.116 0.084 -0.15 0.142 -0.342 0.106 -0.039 0.073 0.175 0.347 0.162 -0.327 -0.147 -0.087 0.387 0.273 -0.222 -0.204 0.017 0.17 -0.022 -0.279 0.262 -0.245 -0.099 -0.139 0.295 -0.006 -0.205 -0.037 0.02 -0.135 -0.13 0.137 -0.221 0.139 -0.319 -0.204 0.331 0.039 -0.081 0.274 0.036 0.103 0.078 -0.059 -0.288 0.13 -0.108 0.169 0.267 -0.228 0.309 0.261 -0.08 -0.072 -0.317 -0.074 0.078 0.11 -0.323 -0.12 -0.182 0.439 -0.243 -0.091 -0.034 0.019 0.067 -0.191 0.091 0.151 0.135 -0.001 0.242 -0.107 0.329 -0.357 -0.481 0.158 -0.283 -0.258 0.19 -0.173 0.35 0.046 0.119 -0.188 -0.162 0.136 0.026 -0.289 0.03 -0.052 0.122 -0.256 0.356 0.048 -0.155 0.267 -0.146 -0.075 0.5 0.369 -0.286 0.038 0.084 -0.033 0.112 -0.128 -0.047 -0.006 -0.071 -0.017 0.162 0.29 -0.045 -0.028 0.028 0.003 0.197 0.082 -0.102 -0.346 0.295 -0.32 0.19 -0.173 -0.033 -0.068 0.101
size -0.161 0.119 0.218 -0.178 0.107 0.072 0.238 0.141 -0.09 -0.155 0.063 -0.055 -0.296 0.085 0.154 0.234 -0.053 0.038 0.409 -0.091 0.188 -0.088 0.245 0.27 0.12 -0.238 -0.165 -0.121 -0.14 -0.076 -0.307 0.376 -0.088 -0.069 -0.063 0.213 -0.081 0.201 0.041 -0.174 -0.27 -0.243 -0.02 -0.109 -0.215 0.101 0.199 0.111 -0.087 0.138 -0.26 0.471 -0.078 0.2 -0.119 0.233 0.274 0.137 0.107 0.122 0.139 -0.025 -0.09 -0.419 0.073 -0.297 -0.161 0.013 0.251 -0.172 -0.01 -0.084 -0.116 0.142 0.154 -0.108 -0.062 -0.301 0.256 0.006 0.046 -0.255 0.117 -0.1 0.022 -0.08 0.261 0.176 -0.075 0.212 -0.044 -0.196 -0.048 -0.419 -0.232 0.149 -0.067 -0.134 0.095 -0.28 -0.15 0.069 -0.063 -0.018 -0.046 0.2 -0.211 0.034 0.188 -0.202 0.01 0.052 0.131 0.202 -0.131 -0.212 0.418 -0.048 0.125 -0.111 -0.074 0.247 -0.06 0.018 0.067 0.156 -0.155 -0.314 0.082 -0.135 -0.271 0.033 0.211 -0.026 0.053 0.084 -0.295 -0.209 0.261 -0.251 0.051 -0.279 -0.082 -0.182 -0.189 -0.001 -0.319 -0.089 0.077 0.284 0.263 0.089 0.097 0.027 0.061 0.439 0.026 -0.175 0.015 0.09 -0.162 0.176 -0.25 -0.016 -0.125 -0.324 0.084 0.094 -0.239 -0.404 0.044 0.017 -0.098 -0.054 0.24 0.254 0.007 0.038 -0.22 -0.11 -0.263 0.076 -0.037 -0.042 -0.04 -0.015 -0.083 -0.21 -0.085 -0.205 -0.132 -0.092 0.172 -0.068 0.059 -0.144 -0.117 0.027 -0.1 0.238 -0.188 0.114 0.542 -0.003 -0.167 -0.178 0.035 0.198 0.074 -0.237 0.035 -0.197 -0.242 0.061 0.094 -0.222 0.135 0.099 0.092 -0.026 0.373 -0.103 0.027 0.093 -0.054 0.154 0.307 -0.01 -0.226 0.193 -0.363 0.054 -0.086 -0.247 0.168 -0.033 -0.335 0.04 -0.052 0.019 -0.076 0.177 0.463 0.249 0.063 0.004 -0.151 -0.26 0.21 -0.05 0.238 -0.046 0.104 -0.259 -0.135 -0.242 0.089 0.084 -0.318 0.33 0.025 -0.144 -0.15 -0.26 0.095 -0.008 -0.176 -0.152 0.472 -0.359 -0.047 0.064 -0.0 -0.052 0.113 -0.076 -0.162 -0.225 -0.292 0.02 -0.154 -0.071 -0.435 0.118 0.059 0.383 -0.172 0.082 0.086 -0.115 0.067 0.012 -0.206 0.06 -0.127 0.072 0.159 -0.048 0.097 -0.095
peace -0.027 0.1 0.107 0.15 -0.357 0.212 -0.124 -0.153 0.125 0.185 0.172 -0.11 -0.222 0.308 0.067 0.149 0.298 0.068 0.006 0.082 0.274 -0.368 0.345 0.101 -0.158 -0.549 -0.236 -0.352 0.121 -0.039 -0.38 0.074 0.02 -0.042 -0.178 -0.009 0.157 -0.352 0.105 0.203 -0.287 0.156 0.117 0.11 -0.479 -0.047 -0.048 -0.164 0.179 0.282 -0.147 -0.119 0.117 0.21 0.011 -0.055 0.112 0.338 -0.033 -0.226 -0.243 -0.075 -0.314 0.014 -0.149 0.056 -0.002 0.441 0.259 -0.176 -0.175 0.013 -0.411 -0.166 -0.128 0.034 -0.216 0.232 -0.412 -0.291 -0.3 -0.161 0.228 -0.187 0.251 -0.089 0.16 -0.115 0.141 -0.091 0.002 0.01 0.184 0.26 -0.177 0.374 -0.024 -0.2 0.136 -0.232 0.277 0.204 0.207 0.241 0.376 0.197 0.082 -0.41 -0.225 -0.098 -0.076 0.321 -0.272 -0.061 -0.05 0.098 -0.092 0.076 -0.219 -0.306 0.228 -0.157 -0.36 0.129 0.058 -0.077 0.182 0.591 -0.15 0.094 0.007 0.136 -0.009 -0.084 0.457 0.612 -0.024 -0.094 0.547 0.191 -0.121 0.158 -0.511 0.359 -0.139 0.671 -0.6 -0.071 0.262 0.097 0.458 -0.269 -0.074 0.102 0.01 -0.062 0.418 0.031 0.371 0.294 -0.412 -0.144 0.029 0.02 -0.503 -0.083 -0.479 0.102 0.33 -0.2 -0.114 -0.285 -0.152 0.101 0.242 -0.226 0.182 0.114 -0.01 0.113 0.13 -0.114 0.183 -0.157 0.066 0.369 -0.076 0.223 -0.017 0.316 0.175 0.016 -0.266 -0.005 0.201 0.089 -0.106 -0.301 -0.079 -0.016 0.309 0.2 -0.309 -0.284 0.111 -0.336 -0.374 0.161 -0.161 -0.216 0.026 0.297 0.005 0.403 -0.156 0.254 -0.172 -0.472 -0.238 0.029 -0.042 -0.245 -0.114 -0.33 -0.108 0.224 0.013 0.12 0.139 -0.264 -0.031 -0.191 -0.004 -0.115 -0.197 -0.045 0.176 0.111 0.011 0.07 -0.562 -0.162 0.128 0.503 0.161 0.453 -0.621 -0.007 -0.115 0.152 0.188 0.223 0.226 -0.029 0.32 -0.089 -0.017 -0.118 -0.164 0.056 0.13 -0.059 0.398 -0.036 0.043 0.066 -0.012 -0.228 -0.152 0.076 0.22 0.321 0.007 -0.015 -0.398 -0.195 0.248 -0.039 -0.012 0.091 0.096 0.295 0.138 -0.19 -0.33 -0.268 0.173 0.1 0.006 0.192 0.406 0.293 0.122 0.255 0.128 0.03 -0.277 -0.056 -0.015 0.171
science 0.069 0.015 0.419 0.547 0.207 0.1 -0.154 -0.061 -0.195 -0.155 -0.135 0.015 -0.083 -0.148 -0.172 -0.318 0.321 0.275 0.038 -0.237 -0.248 0.006 0.299 0.395 0.257 -0.238 0.014 0.128 0.071 -0.151 -0.108 0.208 -0.124 -0.583 -0.065 0.32 -0.236 -0.436 0.1 0.092 -0.328 0.17 0.097 -0.284 -0.321 0.131 0.024 -0.15 0.01 -0.009 0.061 0.177 -0.042 -0.109 0.066 0.283 0.144 -0.14 -0.115 0.042 -0.001 -0.008 -0.351 -0.078 0.074 -0.279 0.076 0.053 0.141 0.146 -0.303 0.183 -0.027 -0.023 0.083 -0.08 -0.248 0.255 -0.13 -0.183 -0.217 0.009 -0.03 -0.217 -0.066 0.3 0.154 -0.217 0.113 -0.288 0.288 0.119 0.291 -0.211 0.045 -0.005 -0.18 -0.123 -0.006 0.073 -0.321 -0.22 0.063 0.199 -0.243 0.209 0.037 0.034 0.081 0.09 -0.093 -0.024 0.323 0.183 -0.178 0.053 -0.235 -0.196 -0.231 -0.02 0.154 -0.015 0.009 -0.334 0.084 -0.078 0.253 0.064 -0.35 -0.099 -0.084 0.087 0.017 -0.125 -0.266 -0.163 0.147 0.017 0.646 -0.333 -0.369 0.115 -0.059 -0.103 -0.094 0.224 -0.249 0.215 0.03 0.329 0.062 0.053 -0.249 -0.095 0.172 0.271 0.114 0.306 -0.085 -0.303 0.101 0.117 -0.304 -0.092 -0.013 -0.21 0.026 0.072 -0.216 0.31 -0.113 0.135 0.17 0.065 0.23 -0.081 -0.206 -0.196 0.134 0.326 -0.17 0.033 0.163 0.212 0.261 0.409 -0.074 0.128 -0.109 0.358 0.118 0.007 -0.172 0.299 0.095 0.059 -0.006 -0.207 -0.327 0.17 -0.0 0.187 -0.276 0.019 0.043 -0.011 -0.021 0.226 -0.105 0.198 0.197 0.108 -0.24 0.197 -0.13 -0.176 -0.07 -0.191 -0.201 -0.08 0.19 -0.12 0.174 0.01 -0.497 -0.094 -0.019 0.114 -0.067 0.04 0.203 -0.42 0.295 0.078 -0.063 0.182 -0.441 0.061 0.029 0.071 0.019 0.086 0.085 0.285 0.009 -0.151 0.113 -0.01 -0.226 -0.026 -0.243 -0.112 -0.012 -0.143 0.173 0.132 0.169 0.133 -0.054 -0.227 -0.019 0.009 0.194 0.013 -0.277 -0.089 -0.004 -0.129 -0.265 0.172 0.129 -0.214 -0.17 -0.103 -0.139 -0.127 -0.15 -0.028 -0.083 0.25 -0.326 -0.075 -0.024 0.117 0.302 0.048 0.017 -0.148 -0.313 -0.206 0.498 -0.017 0.035 -0.265 -0.375 0.124 -0.037 0.269 -0.104 -0.048
dawn -0.103 -0.199 0.072 0.233 0.266 0.261 0.229 0.427 0.059 0.465 -0.117 -0.081 -0.167 -0.115 0.189 0.278 -0.02 0.161 0.153 0.1 -0.157 0.326 -0.217 -0.041 -0.222 -0.056 -0.029 0.065 0.211 0.083 0.231 0.06 -0.104 0.11 -0.338 0.121 0.223 0.356 0.027 0.195 -0.15 0.191 -0.212 0.177 0.027 -0.019 -0.066 0.345 0.201 -0.1 0.065 0.181 0.079 0.112 0.086 0.085 -0.092 -0.313 -0.326 -0.17 0.427 -0.05 -0.384 -0.225 0.005 -0.01 0.561 0.623 -0.015 0.159 0.26 0.124 -0.037 0.046 0.227 -0.104 -0.377 -0.123 -0.161 0.355 0.117 0.142 0.195 -0.166 -0.322 -0.085 0.072 -0.263 0.039 0.281 -0.057 -0.103 -0.043 -0.125 -0.158 0.169 0.104 -0.166 -0.216 -0.135 0.263 0.112 -0.232 0.165 0.057 -0.312 0.083 -0.265 0.087 -0.214 0.174 -0.073 -0.566 -0.38 -0.293 -0.036 -0.433 0.223 -0.204 -0.33 -0.045 0.027 0.127 -0.209 0.06 0.093 0.114 -0.111 -0.146 -0.005 -0.021 0.015 -0.132 -0.186 0.101 0.323 -0.202 -0.061 0.258 0.172 -0.034 -0.031 -0.208 -0.312 0.133 0.208 -0.345 -0.194 0.001 -0.123 0.453 -0.172 0.137 0.463 0.108 0.119 0.321 0.094 -0.058 0.183 0.099 0.125 0.044 -0.172 -0.066 0.182 -0.013 -0.038 -0.145 0.059 0.586 0.051 -0.117 0.172 0.223 0.026 -0.041 0.193 -0.009 0.373 0.108 0.136 0.018 -0.251 0.391 -0.097 0.176 0.198 -0.108 -0.204 -0.248 -0.064 -0.096 0.145 0.269 -0.107 0.308 -0.484 -0.222 -0.063 0.233 -0.197 0.367 -0.201 0.4 -0.116 0.236 0.424 -0.351 -0.302 0.454 -0.071 0.099 -0.029 -0.116 0.211 -0.225 0.079 -0.017 -0.088 -0.049 -0.199 0.046 -0.166 0.108 0.417 -0.027 0.052 0.185 0.252 -0.037 -0.123 -0.024 -0.023 0.139 0.121 0.061 0.201 0.202 -0.106 0.025 -0.32 0.216 -0.027 0.21 -0.337 -0.258 -0.071 0.424 0.014 0.115 -0.023 -0.013 0.173 0.074 0.104 -0.112 0.104 0.137 -0.305 -0.284 0.206 -0.088 -0.028 0.066 0.242 0.161 -0.06 0.193 0.273 -0.103 0.094 0.267 -0.145 -0.027 0.143 -0.187 0.316 0.039 0.048 0.024 0.023 -0.091 -0.277 0.022 0.347 0.062 0.07 -0.167 0.042 -0.117 0.034 -0.185 0.151 0.291 0.13 -0.05 0.169 0.085 -0.114
brother 0.079 -0.382 0.213 0.258 -0.051 -0.003 -0.235 -0.125 -0.009 0.372 -0.116 -0.197 -0.537 0.027 0.027 -0.013 -0.164 0.102 0.209 -0.121 -0.034 -0.032 0.058 0.155 0.018 -0.206 0.234 0.409 0.276 0.298 -0.023 0.038 -0.06 -0.315 -0.403 0.22 0.025 0.133 -0.115 0.16 -0.327 0.32 -0.289 -0.2 -0.256 0.212 -0.364 0.228 0.119 -0.051 0.084 0.083 0.077 0.127 0.145 -0.224 0.068 -0.152 0.238 -0.473 -0.107 -0.1 -0.115 -0.109 -0.031 -0.059 0.013 0.18 0.146 0.098 -0.22 -0.061 -0.036 0.164 -0.048 -0.326 0.059 0.049 0.187 0.212 -0.126 -0.076 -0.125 0.266 -0.053 -0.191 -0.001 0.165 -0.311 -0.502 0.198 0.014 -0.254 0.196 -0.242 0.026 -0.082 -0.039 -0.159 0.129 0.066 0.179 -0.083 -0.089 0.019 -0.211 -0.095 0.028 -0.394 0.414 0.231 0.263 -0.288 0.175 0.012 -0.242 0.078 -0.013 0.138 -0.012 -0.402 -0.038 -0.012 -0.167 -0.062 0.324 0.259 0.183 -0.105 0.009 -0.234 0.096 0.091 -0.264 -0.154 0.089 -0.273 0.082 0.276 -0.183 -0.11 0.096 0.086 -0.091 0.374 0.211 -0.191 -0.181 0.259 -0.003 0.302 0.295 0.048 0.223 0.107 0.018 0.696 -0.19 -0.132 -0.072 -0.468 -0.046 -0.282 -0.114 0.223 0.079 0.076 -0.16 0.159 -0.032 -0.086 -0.106 -0.028 -0.124 0.034 -0.308 -0.146 0.108 0.082 -0.088 -0.261 -0.328 0.245 -0.191 0.274 0.023 -0.351 -0.103 0.089 0.245 -0.087 0.312 0.608 -0.359 0.192 -0.213 -0.032 0.117 -0.086 0.139 0.154 0.081 0.253 -0.217 0.267 -0.282 0.046 0.204 0.083 -0.227 -0.047 -0.391 -0.166 0.08 0.1 -0.045 -0.304 0.276 -0.266 -0.142 0.236 -0.152 -0.097 -0.657 0.087 0.224 -0.097 0.192 0.222 0.403 -0.016 -0.158 -0.12 0.059 0.181 -0.041 0.261 0.203 -0.066 0.205 0.237 0.334 -0.048 0.606 0.107 -0.008 -0.137 0.258 0.397 0.199 0.065 -0.123 -0.012 0.044 0.084 -0.232 -0.265 0.359 -0.028 -0.035 0.003 0.039 -0.29 -0.033 -0.053 0.394 0.128 -0.394 0.148 0.111 0.202 0.152 0.086 0.157 -0.154 -0.003 0.068 0.259 -0.067 0.097 0.126 -0.048 0.102 -0.157 0.011 -0.229 0.047 0.136 0.168 -0.106 0.082 0.201 -0.061 0.186 -0.015 -0.378 0.116 -0.171 -0.078 0.098
wine -0.3 -0.332 0.689 0.261 0.074 -0.509 0.154 0.27 0.008 -0.285 -0.073 -0.017 0.191 -0.228 0.168 -0.016 0.045 -0.219 0.234 0.081 -0.09 0.106 -0.388 0.454 -0.209 -0.068 0.118 0.059 0.092 0.142 -0.153 0.193 -0.179 -0.181 -0.115 0.136 -0.198 0.292 -0.001 0.396 -0.493 0.165 -0.447 0.127 -0.259 -0.113 0.175 -0.333 0.248 0.044 -0.258 0.592 0.035 0.351 -0.228 0.286 -0.397 0.475 0.031 0.25 -0.112 -0.17 -0.163 0.074 0.009 -0.196 -0.062 0.148 -0.224 0.16 0.721 -0.177 -0.235 -0.015 -0.091 -0.176 -0.252 -0.243 0.085 -0.402 -0.089 0.0 0.162 -0.052 -0.164 -0.03 0.145 -0.173 0.2 -0.133 -0.048 0.169 -0.351 0.129 0.212 0.335 -0.166 -0.339 0.081 -0.208 0.182 -0.16 -0.024 -0.147 -0.039 0.262 0.022 -0.066 -0.077 0.017 0.225 0.139 0.013 0.095 0.109 0.027 -0.001 -0.14 -0.091 -0.171 0.253 0.309 0.039 -0.112 -0.006 -0.199 0.205 0.232 -0.143 -0.094 -0.214 0.531 0.221 -0.339 -0.263 0.206 -0.162 -0.554 0.456 -0.208 0.029 0.217 0.04 0.155 0.125 0.892 -0.212 0.259 -0.334 0.083 -0.267 -0.264 -0.31 0.677 -0.263 -0.269 -0.17 -0.114 0.034 -0.121 0.134 0.121 -0.104 0.13 -0.255 0.289 0.343 0.132 -0.239 0.141 0.09 -0.064 -0.076 0.008 -0.067 0.452 -0.09 -0.095 -0.123 0.181 0.04 0.023 -0.065 -0.025 -0.203 0.057 -0.034 0.173 -0.012 -0.533 0.361 -0.267 0.158 -0.149 -0.05 -0.221 -0.43 0.108 -0.058 0.126 -0.064 -0.072 0.444 -0.197 -0.296 0.13 0.499 -0.076 -0.383 -0.034 -0.097 0.124 -0.02 -0.226 -0.101 0.073 -0.07 -0.249 -0.335 -0.046 0.539 -0.084 -0.036 0.186 0.148 -0.373 -0.182 0.355 0.224 -0.367 0.236 -0.247 0.038 -0.427 0.258 0.015 -0.278 0.288 -0.611 0.243 -0.242 0.198 0.047 0.032 0.28 0.156 0.213 -0.12 0.134 0.13 -0.087 0.475 -0.316 -0.773 -0.195 -0.151 0.329 -0.186 0.365 0.23 0.154 0.51 -0.105 -0.12 0.062 0.384 -0.022 -0.347 0.19 0.209 0.052 0.018 -0.017 -0.44 -0.064 -0.491 -0.115 -0.161 -0.161 0.032 0.447 -0.129 0.207 0.017 -0.104 0.048 0.196 -0.082 0.059 0.072 0.151 -0.005 0.134 0.413 -0.141 -0.033 -0.086 -0.094 -0.315 -0.374
object 0.236 0.306 0.185 0.177 0.195 0.061 0.191 -0.101 -0.037 -0.18 -0.13 0.184 -0.503 -0.119 0.244 0.092 0.097 0.225 0.273 0.025 0.048 0.108 0.399 0.348 0.297 -0.106 -0.023 0.014 0.033 -0.041 -0.182 0.107 -0.056 -0.169 -0.127 -0.043 -0.186 -0.066 -0.048 0.374 -0.006 0.21 -0.069 -0.07 -0.371 0.03 -0.2 0.065 -0.165 0.186 -0.194 0.104 -0.171 0.147 0.053 0.009 0.257 -0.316 0.125 0.151 -0.128 0.174 -0.367 -0.107 0.219 0.145 0.145 0.123 0.043 -0.287 0.176 0.162 0.195 0.33 -0.024 0.004 -0.146 -0.094 0.177 -0.151 0.123 -0.29 0.087 -0.097 -0.21 0.214 0.181 -0.226 -0.035 -0.161 0.103 -0.192 -0.235 -0.337 0.117 0.079 -0.339 0.006 -0.183 0.061 -0.228 -0.081 -0.17 0.182 0.219 0.12 -0.132 -0.078 -0.217 0.01 -0.103 -0.011 -0.038 -0.164 -0.197 0.126 0.189 0.206 -0.222 0.077 -0.018 0.095 0.067 -0.279 0.046 0.238 -0.062 -0.046 0.071 -0.253 0.05 0.053 0.174 -0.004 -0.013 -0.134 -0.127 -0.037 0.087 -0.096 -0.388 0.21 0.008 0.029 -0.061 0.25 -0.071 -0.088 -0.225 -0.132 -0.126 0.253 -0.173 0.062 0.246 0.009 0.076 -0.232 0.14 -0.383 -0.126 0.017 -0.074 0.124 0.162 0.126 0.005 -0.005 -0.017 0.226 -0.411 -0.03 -0.299 -0.296 -0.135 -0.14 0.089 -0.007 0.016 -0.008 0.033 0.048 0.102 -0.097 0.511 0.21 -0.203 0.201 0.308 0.166 -0.178 -0.003 -0.103 -0.03 -0.049 0.211 -0.305 -0.146 -0.032 0.39 -0.022 -0.265 0.323 0.075 -0.099 -0.081 -0.222 0.338 0.031 0.053 -0.058 0.211 -0.288 0.128 -0.151 0.009 0.106 -0.227 0.21 0.302 0.438 -0.164 0.155 0.049 -0.148 0.24 -0.138 -0.363 -0.385 0.047 0.237 -0.417 -0.207 0.008 0.267 0.065 0.045 -0.347 0.061 0.05 -0.318 -0.134 0.1 0.277 -0.136 -0.127 -0.321 -0.502 0.135 -0.067 -0.184 -0.312 0.305 0.034 0.085 -0.17 0.195 0.039 0.272 0.212 -0.041 -0.017 0.16 -0.055 0.374 0.127 0.03 -0.224 0.031 0.239 -0.138 0.078 -0.22 0.28 -0.254 -0.259 -0.302 -0.058 -0.412 0.109 -0.006 -0.272 -0.095 -0.004 -0.12 0.217 -0.141 0.206 -0.157 0.111 0.056 -0.168 0.122 -0.021 -0.257 -0.016 -0.282 0.091 -0.073 -0.16
attitude 0.029 0.149 0.497 0.189 -0.104 -0.074 0.346 0.095 -0.042 0.004 0.277 0.154 -0.243 -0.028 0.015 -0.023 0.217 0.15 0.188 -0.479 -0.045 0.083 -0.026 0.318 0.475 -0.415 -0.172 -0.351 0.004 0.265 -0.291 -0.248 -0.208 -0.079 0.03 0.132 0.117 -0.324 0.007 0.048 0.023 0.156 -0.283 0.134 -0.343 0.301 -0.029 0.026 -0.108 0.006 0.047 0.326 -0.013 0.2 0.186 -0.313 0.196 -0.039 0.271 0.133 0.349 0.176 -0.398 -0.166 -0.097 0.058 0.204 -0.227 0.102 -0.094 -0.02 -0.062 -0.033 0.035 0.069 -0.067 -0.435 0.145 0.073 -0.293 -0.207 -0.007 0.035 -0.123 0.098 -0.221 0.164 0.071 -0.202 -0.086 0.357 0.024 0.191 -0.073 -0.054 -0.081 -0.281 0.081 -0.105 -0.393 -0.002 -0.03 0.12 0.024 -0.105 0.251 -0.037 -0.075 0.165 0.14 0.151 0.336 0.032 0.208 -0.257 0.066 -0.074 -0.037 0.04 -0.065 0.064 0.151 -0.093 0.106 -0.051 -0.243 0.175 0.209 0.131 -0.107 0.242 0.257 -0.144 0.011 0.186 0.254 -0.002 0.055 0.148 -0.006 0.054 0.18 0.149 -0.098 -0.201 0.238 -0.119 0.291 0.107 -0.331 0.033 0.095 0.329 0.076 -0.078 0.27 0.199 0.06 0.13 0.036 -0.301 0.312 0.096 0.183 0.172 -0.155 -0.227 0.063 0.143 -0.075 0.268 -0.029 -0.331 -0.021 -0.249 0.091 -0.226 0.009 -0.351 0.27 0.103 -0.006 -0.095 0.087 0.178 0.303 0.226 -0.163 0.252 0.301 -0.247 0.023 -0.251 0.367 0.218 -0.143 -0.158 0.079 0.013 0.316 0.018 0.114 0.096 -0.238 0.032 0.111 0.195 -0.026 -0.07 0.106 -0.473 -0.208 -0.017 0.093 -0.015 -0.155 0.092 0.03 0.147 0.02 0.311 -0.158 0.175 -0.242 -0.389 0.145 0.187 -0.337 0.066 0.116 0.073 0.012 0.019 -0.282 0.184 0.029 -0.012 0.07 0.076 -0.045 -0.111 0.326 0.219 0.161 -0.022 -0.009 -0.08 -0.226 0.142 -0.14 -0.009 0.186 0.176 -0.076 -0.247 0.0 -0.346 0.171 0.003 0.251 -0.182 -0.337 0.008 0.031 0.193 0.08 0.199 -0.161 -0.086 0.171 -0.259 0.282 0.257 -0.21 -0.316 0.261 0.411 0.046 0.201 0.114 -0.111 -0.146 -0.089 -0.152 -0.106 0.079 -0.367 -0.151 -0.216 0.119 -0.061 0.105 -0.038 -0.261 -0.013 0.262 -0.062 0.04 -0.133 -0.061
treatment 0.013 0.143 -0.055 0.214 0.064 -0.191 -0.067 0.062 0.21 -0.142 0.176 -0.066 -0.304 0.139 0.07 -0.163 0.292 0.102 0.308 0.015 0.451 -0.186 -0.058 0.037 0.086 -0.217 -0.133 -0.268 0.335 0.228 0.057 -0.107 0.13 -0.326 0.073 0.064 0.237 0.008 0.075 -0.199 -0.387 0.309 -0.203 -0.252 -0.114 0.213 -0.133 -0.127 0.052 -0.187 0.006 0.31 0.144 -0.09 -0.01 0.056 -0.019 0.002 0.097 -0.088 -0.299 0.111 0.084 -0.154 0.266 -0.13 -0.12 0.133 0.003 0.262 -0.018 0.169 -0.07 0.059 -0.226 -0.371 -0.633 0.053 0.099 -0.172 0.176 0.028 0.249 -0.013 -0.05 0.107 0.04 -0.137 -0.042 -0.151 0.182 0.348 0.094 -0.287 -0.058 0.078 0.121 0.267 0.069 0.056 -0.128 -0.206 -0.02 0.02 0.297 -0.119 0.324 -0.04 -0.029 -0.372 0.314 0.155 0.027 -0.009 0.003 -0.258 -0.279 0.115 0.07 -0.396 0.191 0.172 0.168 -0.03 0.225 -0.145 -0.23 0.149 -0.199 0.328 0.069 0.051 -0.173 -0.368 -0.061 -0.162 0.211 -0.31 0.176 -0.24 0.089 -0.05 0.108 -0.092 -0.084 -0.146 0.052 0.393 -0.114 0.078 0.223 0.194 -0.255 0.434 0.175 0.001 -0.216 -0.278 -0.003 -0.098 -0.185 0.053 0.231 0.085 0.095 0.145 -0.162 0.312 -0.095 0.047 -0.048 -0.062 -0.257 -0.14 0.136 -0.215 -0.019 0.066 -0.063 0.206 0.014 -0.078 -0.128 0.379 -0.274 -0.07 0.38 0.022 -0.167 0.304 -0.054 0.109 0.057 0.246 0.304 0.024 -0.104 -0.076 -0.084 -0.259 -0.181 0.121 0.313 0.278 0.157 -0.055 0.049 -0.039 0.068 0.064 0.247 0.139 0.294 0.278 -0.044 -0.107 0.082 -0.154 0.311 0.188 0.351 -0.032 0.121 0.017 0.233 0.028 0.322 -0.065 0.24 -0.06 -0.162 -0.102 0.31 0.034 0.351 0.103 0.221 -0.019 0.126 -0.147 -0.054 0.082 -0.391 0.229 0.211 -0.16 -0.029 -0.126 -0.078 -0.128 -0.044 -0.244 0.025 -0.072 0.025 0.133 0.174 0.13 -0.338 -0.35 -0.013 -0.212 -0.129 -0.3 -0.31 0.248 0.071 -0.414 0.029 -0.001 -0.165 -0.113 0.118 -0.221 0.055 -0.11 0.042 0.0 -0.121 0.355 -0.119 0.083 -0.098 -0.079 0.347 0.074 -0.115 -0.243 -0.327 0.087 -0.106 0.241 0.056 0.164 0.052 -0.011 0.062 -0.156 -0.105 -0.429
flight 0.066 0.221 0.479 -0.063 0.511 0.082 0.138 0.039 0.414 -0.226 0.269 0.117 0.038 0.059 -0.178 -0.057 0.006 -0.022 0.227 -0.619 -0.046 -0.038 -0.172 0.144 0.234 -0.156 -0.35 0.034 0.007 0.23 -0.223 -0.058 -0.119 0.009 -0.282 0.09 0.058 0.103 -0.017 0.166 0.117 0.257 -0.192 0.136 -0.222 0.137 0.174 -0.105 0.122 0.203 0.149 -0.089 0.235 -0.062 -0.327 -0.029 0.199 -0.24 0.121 -0.416 0.512 0.208 -0.425 -0.231 0.411 -0.153 -0.355 0.409 0.438 -0.033 -0.108 0.127 -0.087 -0.006 0.059 -0.264 -0.252 -0.083 0.185 -0.1 -0.237 -0.111 -0.148 -0.128 -0.328 -0.109 0.61 0.255 -0.041 -0.221 -0.09 0.193 0.012 0.314 -0.039 -0.027 -0.029 -0.067 0.041 -0.207 0.024 0.105 -0.085 0.148 -0.003 -0.026 0.197 0.457 -0.021 0.047 -0.061 -0.052 0.016 -0.082 -0.072 0.112 -0.189 0.371 -0.149 0.413 -0.034 -0.011 -0.122 0.051 -0.024 -0.131 0.164 0.194 -0.135 0.431 -0.336 0.292 0.055 0.152 0.117 0.22 -0.2 -0.216 -0.208 -0.09 -0.143 -0.234 0.12 -0.054 -0.289 0.03 -0.31 0.065 -0.098 0.003 0.404 -0.054 -0.062 0.165 0.073 -0.236 0.242 -0.244 0.244 -0.275 -0.177 0.128 -0.08 -0.085 -0.145 0.586 0.255 0.288 -0.461 -0.087 0.233 0.16 0.075 -0.038 0.077 0.108 -0.042 0.059 -0.023 0.296 -0.066 -0.306 0.29 -0.03 0.013 0.027 0.397 -0.302 -0.182 0.156 -0.281 0.129 -0.052 -0.071 -0.355 0.233 -0.197 -0.444 -0.126 0.022 0.15 0.194 -0.01 -0.214 -0.191 0.019 0.121 0.126 -0.16 0.007 -0.013 0.532 0.103 0.166 0.289 -0.322 0.196 0.095 -0.098 0.166 0.15 -0.057 0.273 -0.136 0.011 0.005 -0.064 -0.188 -0.352 -0.127 0.014 -0.864 0.332 0.142 0.124 0.098 -0.084 -0.401 -0.36 -0.43 0.03 0.045 0.082 0.291 0.053 0.44 -0.008 -0.092 0.221 -0.144 0.175 0.061 -0.08 0.418 0.044 -0.313 -0.283 -0.245 -0.217 -0.047 -0.266 0.445 -0.192 -0.298 0.037 0.059 0.321 -0.062 0.021 0.145 0.155 0.077 0.233 -0.323 -0.349 0.22 -0.072 -0.043 0.175 -0.079 -0.275 -0.249 -0.094 0.37 0.555 -0.066 0.077 -0.283 0.043 0.258 0.306 0.14 -0.009 0.181 -0.239 0.086 -0.306 -0.086 0.125 -0.136
forest -0.183 -0.288 0.102 0.319 0.005 0.514 0.087 0.191 0.203 -0.05 0.113 -0.065 -0.09 0.177 0.011 0.016 0.032 -0.239 0.295 0.158 -0.157 0.218 0.062 0.004 0.001 -0.107 0.052 0.123 -0.21 0.09 -0.212 0.338 0.123 -0.218 0.348 0.01 -0.005 0.066 -0.127 0.042 -0.142 0.051 0.161 -0.082 0.051 0.098 0.427 -0.192 -0.088 0.359 0.226 -0.022 0.501 0.044 -0.24 0.126 0.337 -0.09 -0.118 0.272 0.056 0.015 -0.382 0.04 0.321 -0.283 0.172 0.092 -0.216 0.091 -0.323 -0.459 0.311 -0.1 0.157 -0.255 0.225 0.423 0.319 0.191 -0.131 -0.215 0.178 -0.084 -0.286 -0.209 0.615 -0.066 -0.098 0.224 0.121 0.164 0.337 -0.099 -0.063 0.29 0.006 -0.12 0.18 0.14 0.268 0.295 -0.408 0.324 0.224 0.035 0.139 -0.105 0.014 0.093 -0.066 -0.234 0.022 0.051 -0.353 0.395 -0.035 -0.15 0.099 0.123 0.039 -0.05 0.299 0.112 -0.371 0.105 -0.094 0.093 -0.567 0.305 0.226 0.252 0.487 -0.271 0.126 0.149 -0.41 -0.007 0.526 -0.434 -0.127 -0.165 -0.101 -0.187 -0.151 0.24 0.144 -0.359 0.034 0.498 0.045 -0.107 0.001 0.26 0.322 0.011 0.249 -0.493 0.113 -0.026 -0.145 0.233 0.055 -0.16 0.133 -0.042 -0.208 0.339 -0.146 0.292 0.391 -0.039 0.179 -0.21 0.091 -0.179 0.097 0.387 0.275 0.195 -0.158 0.27 -0.283 -0.344 0.224 0.317 -0.242 0.222 0.145 -0.036 0.321 0.236 0.047 0.352 -0.163 0.146 0.105 0.066 0.278 0.061 0.095 -0.211 0.342 0.026 0.136 -0.125 0.069 0.266 0.017 0.361 0.492 0.491 -0.117 -0.158 -0.588 -0.079 0.007 0.156 0.039 -0.236 0.274 0.178 0.152 -0.009 0.068 0.14 0.209 -0.224 -0.148 -0.367 -0.315 -0.55 0.073 -0.197 0.072 -0.059 0.086 -0.27 0.403 -0.055 0.008 -0.005 0.058 0.19 0.131 0.137 -0.232 -0.062 0.108 0.258 0.452 0.128 0.24 -0.713 -0.334 -0.031 -0.082 0.567 -0.375 0.027 0.005 -0.102 0.391 -0.045 -0.136 0.146 0.06 -0.096 0.134 0.079 -0.054 -0.018 -0.118 0.037 0.091 -0.325 0.036 0.145 -0.023 -0.094 0.276 0.105 0.211 -0.172 0.134 0.248 0.091 -0.283 0.226 0.01 0.394 -0.23 0.16 -0.037 0.162 0.12 -0.031 -0.169 0.297 0.143
abuse -0.121 0.043 0.146 0.029 0.161 -0.108 0.193 -0.127 -0.028 -0.132 0.438 0.246 -0.475 -0.265 -0.028 0.151 -0.29 0.218 -0.136 -0.053 0.236 0.005 0.032 0.026 0.395 0.104 -0.011 0.053 0.274 0.014 -0.496 0.024 0.101 -0.42 -0.02 0.058 -0.056 -0.011 -0.351 -0.18 -0.271 0.195 -0.402 -0.494 -0.346 -0.134 -0.214 -0.129 -0.187 -0.071 0.036 0.136 -0.004 -0.032 -0.257 -0.288 0.183 0.136 0.255 -0.038 -0.17 -0.043 -0.126 -0.192 -0.471 -0.07 -0.107 -0.007 0.116 -0.263 -0.035 0.131 -0.238 0.139 -0.041 -0.23 -0.34 0.275 -0.319 0.203 0.185 0.174 0.229 0.009 0.077 0.186 -0.128 -0.116 -0.089 -0.163 0.391 0.033 0.279 -0.001 0.086 0.237 0.032 -0.032 0.585 -0.26 -0.016 0.009 -0.204 -0.112 0.01 -0.113 -0.114 -0.119 -0.122 0.079 0.187 0.226 0.094 -0.063 0.129 -0.035 -0.152 -0.294 0.071 -0.175 0.055 0.312 0.353 -0.128 0.475 -0.214 -0.134 0.089 -0.279 -0.203 0.076 0.362 0.433 -0.132 0.144 0.064 0.374 -0.347 0.192 0.097 0.068 0.29 0.242 -0.351 -0.172 0.094 0.252 0.281 -0.217 0.051 0.243 0.182 0.514 0.486 -0.013 -0.104 -0.078 -0.033 0.398 0.22 0.104 -0.203 0.119 -0.255 0.076 -0.032 0.177 0.176 0.197 -0.063 0.498 -0.106 -0.455 -0.194 0.702 0.063 0.19 0.077 0.082 0.025 -0.149 -0.404 0.089 0.076 0.13 0.269 -0.315 0.293 -0.186 -0.086 0.013 0.232 0.04 0.341 0.162 0.1 0.119 -0.06 -0.034 0.063 0.097 0.334 0.165 -0.175 0.676 -0.084 -0.094 0.309 -0.257 -0.211 -0.014 -0.162 0.072 0.24 -0.41 -0.246 0.073 0.092 0.297 0.123 0.24 0.246 -0.077 0.05 0.366 0.138 0.425 -0.388 0.17 -0.144 -0.286 -0.045 0.21 0.388 0.312 -0.099 0.254 -0.293 0.006 -0.159 -0.098 -0.066 -0.185 0.517 0.019 0.078 -0.133 0.316 0.062 -0.175 -0.231 -0.134 0.118 -0.337 0.086 0.007 0.214 -0.116 -0.116 -0.091 0.307 -0.09 -0.285 -0.036 -0.186 0.094 0.385 -0.116 0.236 0.331 0.315 -0.101 0.364 0.029 -0.027 0.042 -0.039 -0.092 -0.034 -0.17 0.117 0.189 -0.237 -0.377 0.528 -0.057 0.223 0.072 -0.108 0.362 -0.0 -0.052 0.307 -0.035 0.128 0.062 -0.02 -0.355 0.019 -0.347
criterion -0.029 0.122 0.117 0.049 -0.068 -0.238 -0.101 -0.061 -0.12 -0.168 -0.03 0.212 -0.195 -0.181 0.019 0.169 0.132 0.381 0.256 -0.316 -0.107 -0.163 0.289 0.368 0.131 -0.268 -0.088 -0.044 0.07 0.023 -0.217 0.009 -0.318 -0.192 -0.057 0.055 -0.023 -0.224 -0.039 0.073 -0.065 -0.003 0.05 -0.194 -0.223 0.035 -0.109 0.157 -0.012 -0.083 -0.114 0.245 0.104 -0.156 -0.213 0.163 -0.018 -0.048 0.053 -0.073 -0.012 0.17 -0.052 -0.036 0.211 -0.097 -0.144 0.086 0.211 0.006 0.076 0.064 -0.157 0.211 0.174 -0.189 -0.071 -0.058 -0.236 -0.178 -0.058 -0.077 0.11 -0.048 0.002 0.0 0.076 -0.134 0.215 -0.029 0.405 0.205 0.316 -0.271 0.108 -0.02 0.024 0.0 0.107 0.012 -0.037 -0.189 -0.077 0.062 0.084 0.121 0.045 0.104 0.066 0.159 -0.227 -0.235 0.054 0.035 0.064 -0.008 -0.031 -0.001 -0.176 -0.289 0.222 -0.155 -0.262 0.13 0.321 -0.174 -0.128 -0.007 -0.157 -0.111 -0.053 0.006 0.208 -0.26 -0.132 -0.094 -0.236 -0.137 0.384 -0.306 -0.048 -0.01 0.078 -0.025 0.028 0.027 -0.123 0.199 -0.208 0.095 -0.143 -0.028 -0.135 0.192 0.107 0.214 -0.12 0.027 0.1 0.006 -0.144 0.064 -0.5 0.147 -0.219 0.258 -0.121 -0.053 -0.13 0.16 -0.085 0.258 0.008 0.182 -0.143 0.077 0.017 0.071 0.108 0.183 -0.204 0.07 0.226 0.081 -0.027 0.053 -0.011 0.023 0.026 0.068 -0.21 0.135 -0.208 0.396 0.111 0.113 -0.221 0.134 -0.169 0.045 -0.099 0.148 -0.111 0.148 -0.242 -0.007 0.237 -0.046 -0.128 -0.096 -0.147 0.021 -0.132 0.053 0.128 0.113 0.176 -0.02 0.088 -0.079 0.269 -0.154 -0.18 -0.016 0.082 -0.068 -0.04 -0.224 0.211 0.047 0.273 -0.14 -0.08 0.178 0.045 0.154 0.028 0.088 -0.053 -0.024 -0.205 0.393 0.042 0.196 0.077 -0.287 -0.056 0.016 0.247 -0.007 0.007 0.071 0.164 -0.044 0.066 0.087 0.109 0.148 -0.014 -0.128 -0.07 -0.028 0.056 -0.064 0.147 -0.004 0.122 -0.2 0.1 -0.172 -0.089 -0.067 0.148 0.035 -0.137 -0.053 -0.164 -0.107 0.031 0.149 -0.151 -0.106 -0.07 0.034 0.015 0.158 -0.01 -0.141 -0.031 -0.11 0.04 0.034 -0.013 0.24 -0.259 0.113 -0.116 -0.209 0.178 0.139
sea 0.154 0.13 0.213 -0.002 0.156 0.309 0.159 -0.171 0.099 -0.31 0.067 0.14 0.105 0.235 0.352 0.172 0.063 -0.065 0.007 0.049 0.175 0.146 -0.03 0.145 0.119 -0.332 0.238 -0.024 0.271 -0.066 -0.315 0.273 -0.229 0.093 -0.021 -0.352 0.092 0.073 -0.208 0.203 -0.358 -0.175 -0.152 0.265 0.04 -0.368 0.154 -0.081 0.131 -0.049 0.192 0.025 -0.002 0.534 -0.272 0.026 0.037 -0.195 0.049 -0.046 0.021 0.12 -0.417 -0.188 0.476 -0.431 -0.099 0.683 -0.026 0.169 -0.031 0.389 -0.515 -0.011 -0.181 0.079 -0.131 0.471 0.172 -0.186 0.036 -0.172 -0.009 -0.119 0.122 -0.256 0.049 -0.439 0.141 0.202 -0.052 -0.065 0.094 -0.241 -0.387 0.008 0.209 0.081 -0.355 -0.048 0.185 -0.18 -0.433 0.425 0.215 0.179 0.294 -0.094 0.087 0.066 -0.114 -0.229 -0.354 0.116 -0.187 0.43 0.04 -0.089 0.211 -0.098 -0.097 0.438 0.252 -0.104 -0.056 -0.285 0.196 0.089 -0.124 0.198 -0.255 -0.003 -0.096 -0.018 0.21 0.102 -0.122 0.3 0.258 -0.074 -0.088 0.083 -0.233 -0.024 -0.172 0.36 0.048 0.023 -0.196 -0.023 0.625 -0.024 0.309 0.016 -0.166 -0.154 -0.004 -0.102 0.063 -0.089 -0.1 0.407 0.176 -0.268 -0.146 0.058 -0.052 0.134 -0.043 0.038 0.067 0.145 -0.272 -0.024 0.166 0.306 0.254 -0.289 -0.464 0.098 -0.437 0.557 -0.108 -0.135 0.189 0.297 -0.084 0.281 -0.214 -0.171 -0.026 -0.012 -0.3 0.159 0.013 0.166 0.034 0.122 -0.255 -0.086 -0.017 -0.092 0.022 -0.108 0.232 -0.231 -0.484 -0.084 -0.3 0.265 -0.112 0.133 -0.251 0.122 -0.257 -0.115 0.116 -0.168 0.183 -0.006 0.484 -0.273 0.049 -0.146 -0.401 0.333 -0.033 -0.209 -0.019 0.249 -0.135 -0.279 0.148 -0.413 0.287 0.312 -0.027 0.286 -0.178 0.076 0.144 0.292 0.192 0.18 -0.463 0.387 -0.334 0.345 -0.011 -0.027 0.152 -0.192 -0.046 -0.338 -0.052 0.304 0.135 -0.006 0.346 0.267 -0.145 0.326 -0.397 -0.246 0.167 -0.111 -0.098 -0.045 -0.166 0.076 -0.06 -0.315 -0.048 -0.185 -0.255 -0.091 -0.238 -0.151 -0.266 0.062 -0.036 -0.031 0.007 0.055 0.172 0.267 -0.11 0.129 0.059 0.091 0.282 -0.095 -0.235 -0.132 -0.24 0.041 0.243 -0.161 0.044 0.212
dollar -0.17 0.109 0.757 -0.049 0.157 0.093 0.134 0.363 0.039 0.007 0.28 0.134 -0.202 0.231 0.122 -0.255 0.451 -0.208 0.029 -0.187 0.038 -0.011 -0.01 0.288 -0.144 -0.147 0.157 -0.247 0.019 -0.212 0.412 -0.003 -0.038 -0.146 0.065 0.181 -0.073 0.071 -0.029 0.068 0.076 -0.496 0.259 0.052 -0.115 -0.277 0.065 0.028 -0.147 0.31 -0.271 -0.04 0.104 0.099 -0.108 -0.023 0.015 -0.006 0.409 -0.109 -0.075 -0.425 -0.093 -0.15 0.221 -0.542 0.163 -0.005 0.124 0.141 -0.14 -0.066 -0.209 -0.003 -0.024 -0.036 -0.443 -0.208 0.304 -0.386 0.21 -0.249 0.202 0.174 0.107 -0.245 -0.239 -0.019 0.397 -0.118 -0.14 -0.025 0.311 -0.196 0.233 0.283 -0.076 -0.234 0.139 0.253 0.028 0.406 -0.298 -0.123 0.334 0.186 0.311 -0.094 0.089 0.401 -0.306 -0.026 -0.283 -0.096 -0.204 -0.2 -0.193 -0.029 -0.31 0.225 0.29 0.009 -0.109 -0.17 0.257 -0.091 0.11 -0.045 0.182 0.18 -0.255 0.417 -0.118 -0.408 -0.012 0.191 -0.526 -0.167 -0.143 -0.592 -0.056 0.257 -0.324 -0.017 0.136 0.215 -0.409 -0.207 0.189 -0.077 0.243 0.24 -0.33 0.046 0.101 -0.213 -0.193 -0.018 0.179 0.123 -0.127 -0.098 0.194 0.026 0.21 0.036 -0.217 0.228 -0.331 -0.144 -0.198 0.038 -0.121 0.033 0.183 0.206 0.295 -0.102 0.034 -0.107 -0.185 -0.165 0.086 -0.453 -0.004 0.13 -0.036 0.28 0.356 -0.139 -0.422 0.064 0.105 -0.393 -0.035 -0.036 -0.142 -0.142 -0.237 0.272 -0.085 0.062 0.086 0.187 0.147 -0.183 -0.17 0.297 -0.01 -0.57 -0.027 0.078 -0.113 -0.036 -0.109 0.008 -0.328 0.035 -0.052 0.015 0.348 0.322 0.154 -0.309 -0.32 -0.218 0.296 0.001 0.153 -0.24 0.064 0.16 0.069 -0.225 -0.054 -0.118 0.036 -0.035 -0.113 -0.148 -0.123 -0.209 0.019 0.313 -0.715 0.24 -0.27 -0.132 -0.149 -0.374 -0.07 0.404 -0.068 -0.554 -0.16 -0.099 -0.066 -0.013 0.043 -0.012 -0.09 0.123 -0.374 0.013 -0.093 0.098 0.308 0.266 -0.042 -0.354 0.37 0.023 -0.081 0.235 -0.168 0.595 0.143 -0.351 0.014 0.521 -0.129 0.112 -0.278 -0.14 0.114 0.019 0.173 0.482 0.107 -0.425 0.052 0.046 0.136 0.133 0.009 0.198 -0.495 0.172 0.003 -0.251
example -0.048 0.067 0.249 -0.168 0.097 0.022 0.416 0.288 -0.087 0.026 0.265 -0.079 -0.083 -0.029 0.228 -0.101 0.169 0.206 0.262 -0.214 -0.043 -0.118 0.464 0.044 0.228 -0.356 -0.114 -0.081 -0.003 0.157 -0.289 -0.08 -0.085 -0.174 0.178 -0.07 -0.017 -0.17 -0.177 0.032 -0.304 -0.043 0.123 -0.131 -0.094 0.17 0.074 0.059 -0.012 -0.153 -0.11 0.144 -0.017 0.077 -0.136 0.06 0.108 0.077 0.143 -0.299 -0.222 0.161 0.003 -0.217 0.091 -0.232 0.03 0.076 0.078 -0.097 0.293 0.193 -0.155 0.008 0.093 -0.134 -0.302 -0.188 -0.078 -0.072 -0.104 0.213 -0.2 -0.014 -0.22 -0.135 0.004 0.157 -0.121 0.004 0.049 0.252 -0.08 0.047 -0.063 0.223 -0.155 -0.032 -0.149 0.099 -0.001 -0.037 0.123 0.013 0.297 0.035 0.094 -0.158 0.048 0.081 0.043 0.112 0.065 -0.039 0.024 0.143 0.074 0.052 -0.035 0.039 0.202 0.012 -0.108 -0.045 -0.001 -0.014 -0.154 0.014 -0.072 0.028 -0.211 0.355 -0.056 -0.184 0.039 -0.078 -0.044 -0.17 0.23 -0.172 -0.092 0.071 0.003 0.009 -0.198 0.032 -0.122 0.203 -0.076 0.126 0.093 0.074 -0.028 -0.034 0.24 0.188 0.009 -0.032 0.107 0.094 -0.045 -0.125 0.078 0.03 0.195 0.074 -0.098 0.113 -0.065 0.001 0.067 0.005 -0.156 0.041 0.145 -0.015 0.262 -0.246 0.115 0.169 -0.05 -0.186 -0.027 0.14 -0.177 0.163 0.061 -0.04 0.155 0.069 -0.075 -0.001 0.121 -0.042 0.126 -0.011 0.061 -0.114 -0.026 0.299 -0.046 -0.048 0.048 0.223 -0.149 0.083 0.022 0.125 -0.302 0.035 0.142 -0.14 -0.093 -0.114 -0.083 -0.116 0.136 -0.024 -0.161 0.003 0.119 0.09 0.07 0.101 -0.01 -0.179 0.03 -0.051 0.07 0.024 0.148 0.006 -0.009 0.029 0.09 0.117 0.059 0.253 0.169 0.042 0.031 0.03 0.093 0.089 0.151 -0.032 -0.162 -0.213 0.128 -0.045 0.098 -0.06 -0.072 -0.06 0.219 0.148 0.047 0.291 -0.011 -0.042 0.107 0.033 0.101 0.09 0.07 0.089 0.156 -0.068 0.1 -0.036 0.026 0.25 0.207 0.05 0.002 -0.15 0.194 -0.044 0.129 -0.048 -0.168 -0.135 -0.252 0.223 0.207 -0.029 -0.247 -0.123 -0.132 -0.06 0.234 -0.117 -0.214 0.018 -0.198 -0.088 0.03 -0.06 0.162 0.006
journal 0.022 0.141 -0.16 0.019 -0.06 -0.479 -0.398 0.427 -0.304 0.103 0.247 0.189 -0.265 -0.036 -0.26 -0.043 0.251 0.338 0.231 -0.45 -0.017 0.096 -0.103 -0.028 0.088 -0.258 -0.131 -0.162 0.141 -0.164 -0.286 0.18 -0.163 -0.171 0.014 0.009 0.399 0.16 0.206 0.318 -0.235 0.585 0.712 -0.048 -0.572 -0.063 0.126 -0.397 0.064 -0.118 0.092 0.307 -0.06 0.163 0.029 0.617 0.146 0.103 -0.175 -0.11 -0.093 -0.215 0.059 -0.099 0.171 -0.133 0.249 0.36 0.236 0.006 -0.201 -0.107 -0.135 -0.016 0.129 -0.071 -0.841 0.357 0.166 0.037 0.052 0.344 0.335 0.04 0.097 0.056 -0.173 0.16 -0.371 -0.05 0.574 0.434 0.293 -0.164 0.189 -0.313 0.215 0.186 0.11 0.189 0.146 -0.136 -0.321 0.463 0.113 0.093 0.315 -0.431 -0.315 -0.097 0.354 -0.175 0.352 0.152 -0.503 -0.029 0.001 -0.407 0.175 0.133 0.209 -0.042 -0.136 -0.404 -0.387 0.211 -0.238 -0.04 -0.296 -0.099 -0.261 -0.023 0.067 0.059 -0.255 -0.222 0.115 -0.294 0.877 -0.065 0.071 0.171 0.122 -0.519 -0.386 0.08 -0.325 0.204 0.405 0.101 -0.26 0.575 -0.488 0.191 0.229 0.105 -0.248 0.0 0.022 -0.297 -0.401 -0.256 -0.244 -0.177 0.107 -0.449 -0.004 -0.03 -0.425 0.376 -0.298 0.026 0.16 -0.417 0.274 0.085 -0.304 0.108 0.257 0.306 -0.374 -0.554 -0.256 0.161 -0.032 -0.293 0.204 0.178 -0.068 -0.015 0.118 0.21 -0.114 0.051 0.18 -0.329 -0.086 -0.406 -0.604 0.442 -0.36 0.078 -0.296 0.049 -0.225 0.068 0.3 0.144 -0.339 -0.393 0.534 -0.197 -0.148 -0.208 0.164 -0.1 -0.196 0.221 0.332 -0.412 0.206 0.19 0.482 -0.215 -0.201 0.165 -0.056 -0.124 -0.076 -0.559 -0.104 -0.284 0.27 0.092 -0.073 0.039 0.06 -0.197 -0.318 -0.141 0.501 0.193 0.428 0.221 -0.295 0.075 0.001 0.0 -0.121 0.028 -0.042 -0.162 0.006 0.173 -0.063 -0.115 -0.075 0.203 0.066 -0.393 0.636 -0.089 0.003 0.149 -0.211 0.217 0.518 0.109 -0.163 0.243 -0.089 -0.278 -0.497 -0.334 -0.17 -0.082 -0.124 0.247 0.422 0.438 -0.331 0.011 -0.293 -0.029 -0.02 0.151 0.023 -0.115 -0.24 -0.032 0.619 -0.072 0.281 -0.133 -0.262 0.344 0.114 0.149 -0.211 -0.02
laundering 0.624 0.092 0.163 -0.01 0.223 -0.131 -0.492 0.232 0.144 0.001 0.156 0.543 -0.432 0.155 -0.358 -0.081 -0.47 0.159 -0.227 -0.398 0.339 -0.018 0.122 0.65 -0.114 -0.309 0.256 -0.079 0.373 -0.143 0.195 -0.121 0.22 0.08 -0.494 0.159 0.205 0.347 -0.481 0.213 -0.32 0.087 0.459 -0.27 -0.471 -0.041 -0.239 0.121 -0.081 0.299 0.031 0.046 0.152 -0.327 0.069 -0.137 0.027 0.342 0.197 -0.312 0.093 -0.499 -0.133 0.391 0.19 -0.352 -0.072 0.533 0.499 0.083 0.04 0.767 -0.159 -0.167 -0.015 -0.227 0.415 0.13 -0.053 -0.026 0.023 -0.209 -0.069 0.23 -0.072 -0.122 -0.326 0.206 -0.002 -0.374 -0.546 0.039 0.015 -0.086 0.287 0.267 0.362 0.257 0.307 0.085 -0.066 0.148 -0.502 -0.001 0.388 0.474 -0.014 -0.366 -0.319 0.014 0.597 0.277 0.276 -0.172 0.105 -0.256 -0.081 -0.334 -0.04 -0.336 0.131 -0.308 0.429 -0.164 0.584 0.207 0.143 0.074 0.207 0.224 -0.518 0.186 0.171 0.051 0.529 -0.314 0.029 -0.243 0.214 0.023 -0.338 -0.028 0.237 -0.526 0.381 0.405 -0.359 0.149 -0.503 -0.049 0.013 0.268 0.096 0.576 0.384 -0.023 0.275 -0.03 -0.036 0.072 0.098 0.09 0.223 -0.144 0.497 -0.385 -0.063 0.065 -0.016 0.174 -0.063 0.105 -0.036 0.356 0.024 -0.367 0.19 0.263 -0.036 -0.159 -0.084 -0.093 -0.011 -0.345 -0.156 -0.185 0.046 -0.055 -0.54 -0.503 -0.004 0.02 0.063 0.365 0.355 0.657 -0.157 0.05 -0.102 0.174 -0.258 0.253 -0.055 0.179 0.485 -0.192 0.032 0.337 -0.345 -0.167 -0.269 0.338 -0.672 0.645 -0.118 -0.073 -0.442 0.431 0.082 -0.237 -0.115 -0.031 -0.129 0.074 -0.159 -0.343 -0.136 0.225 0.483 -0.102 0.002 -0.127 0.308 -0.203 0.377 -0.287 0.241 0.05 -0.143 0.128 -0.089 -0.388 0.057 0.532 -0.301 0.172 -0.673 -0.506 -0.208 0.133 -0.294 0.207 0.087 -0.864 -0.109 0.079 -0.271 0.055 -0.144 0.024 0.139 0.014 -0.087 -0.087 -0.179 0.191 0.65 -0.332 0.311 0.26 0.205 0.276 0.454 0.029 0.246 -0.516 0.331 -0.012 0.081 -0.1 0.15 0.043 -0.093 0.115 0.885 -0.42 0.052 -0.209 0.272 0.163 0.02 0.38 -0.183 0.136 -0.71 -0.004 -0.332 -0.595 -0.329 -0.293
hotel -0.255 -0.202 0.249 0.012 -0.079 -0.178 -0.125 0.151 0.322 -0.225 0.036 0.009 -0.106 -0.477 -0.147 -0.034 -0.091 -0.373 0.069 -0.17 -0.253 0.032 -0.276 0.14 -0.029 -0.165 0.306 -0.409 0.048 0.219 -0.242 -0.161 0.001 0.045 -0.125 0.372 0.131 0.019 -0.26 0.371 0.0 0.276 -0.127 0.093 0.029 0.032 0.048 -0.048 0.204 -0.091 -0.085 0.006 0.212 0.158 -0.075 0.1 -0.211 0.053 0.17 -0.391 0.375 -0.21 -0.529 -0.017 0.541 0.001 0.09 0.075 0.103 0.136 0.365 -0.185 -0.043 0.037 0.248 -0.244 -0.536 -0.004 0.195 -0.397 -0.037 -0.139 0.043 -0.126 -0.066 -0.151 -0.03 -0.042 0.086 -0.065 -0.164 0.176 -0.14 0.092 -0.077 -0.182 0.265 -0.344 -0.297 -0.133 0.142 0.3 -0.089 -0.051 0.194 0.19 0.046 0.149 -0.051 0.089 0.368 0.039 -0.504 -0.106 -0.353 -0.07 -0.489 -0.041 -0.108 -0.004 0.219 -0.302 -0.071 0.187 0.378 -0.014 -0.024 -0.206 0.049 0.142 -0.197 0.066 0.302 -0.17 0.178 0.035 -0.285 -0.36 0.222 0.034 0.081 -0.026 0.101 0.04 -0.132 0.305 -0.208 -0.076 -0.023 0.201 0.129 -0.127 -0.212 0.512 -0.293 -0.202 -0.136 0.113 -0.271 0.029 -0.249 0.071 -0.056 -0.135 0.338 0.224 -0.104 0.141 -0.346 -0.119 0.019 0.176 -0.317 0.28 0.228 0.026 -0.086 0.095 -0.085 0.353 -0.322 -0.008 0.026 0.042 -0.193 0.106 0.023 0.12 -0.013 -0.128 0.195 0.353 0.492 -0.444 -0.131 -0.034 -0.279 -0.204 0.145 0.177 -0.477 -0.129 -0.344 0.05 0.198 -0.183 -0.216 0.055 0.039 0.208 -0.114 -0.284 0.083 0.051 0.011 -0.381 -0.007 -0.013 -0.142 0.065 0.254 -0.273 -0.089 -0.133 -0.182 0.393 0.277 0.166 0.007 -0.073 0.01 -0.329 -0.038 -0.077 0.348 0.07 0.149 0.001 0.011 -0.083 -0.042 -0.062 0.225 0.216 0.112 0.195 -0.272 -0.007 -0.274 0.331 0.172 -0.033 -0.024 0.151 0.041 0.118 -0.232 0.088 0.125 0.337 0.226 0.077 -0.031 -0.253 0.023 0.26 0.303 0.065 0.072 0.047 0.025 0.005 -0.028 -0.216 -0.083 -0.437 -0.194 0.085 -0.175 0.01 -0.01 -0.225 0.195 0.283 0.049 -0.118 0.106 0.053 -0.048 0.049 0.132 -0.288 -0.091 0.145 -0.001 0.014 -0.19 -0.002 0.132 -0.05
term 0.256 0.151 0.143 -0.06 -0.165 -0.217 0.166 -0.08 -0.14 -0.168 0.216 0.0 -0.338 -0.024 0.167 -0.028 0.225 0.133 0.478 -0.342 -0.011 -0.022 0.073 -0.194 0.149 -0.148 -0.3 -0.042 0.372 -0.458 0.291 -0.144 0.074 0.345 0.114 0.04 -0.004 -0.328 -0.23 0.061 -0.159 -0.098 -0.021 -0.402 -0.087 -0.011 -0.16 0.046 -0.28 0.212 -0.014 0.088 0.042 0.137 -0.163 0.1 -0.249 -0.161 0.127 -0.07 -0.014 -0.142 -0.121 -0.094 0.528 -0.246 -0.102 0.075 0.115 0.174 -0.118 -0.214 -0.303 -0.012 0.036 -0.284 -0.238 0.011 -0.098 -0.204 -0.14 -0.238 0.05 0.046 0.281 -0.024 -0.068 -0.077 -0.053 -0.26 -0.213 0.015 0.168 0.099 0.236 0.21 0.192 0.239 0.138 0.077 0.198 0.141 -0.099 -0.288 -0.012 0.126 0.343 -0.026 0.086 0.051 -0.171 0.064 0.395 0.23 -0.016 -0.014 -0.175 0.147 0.16 -0.253 -0.117 -0.149 0.005 -0.07 -0.152 -0.342 -0.248 -0.033 0.124 -0.181 -0.119 0.29 -0.053 -0.035 0.091 0.126 -0.09 -0.159 0.498 -0.629 0.286 0.291 -0.266 0.245 0.027 -0.164 -0.249 -0.039 -0.045 -0.005 0.179 0.117 -0.348 0.284 0.36 0.053 -0.313 0.284 0.131 0.133 -0.277 -0.034 -0.312 -0.407 -0.144 -0.01 -0.222 -0.028 0.282 0.034 -0.058 0.041 -0.195 -0.382 0.064 -0.346 0.07 0.079 -0.083 0.294 -0.357 -0.151 -0.039 0.23 0.324 0.39 0.232 0.244 0.191 -0.02 0.137 0.038 0.097 -0.123 0.213 0.144 -0.256 0.077 0.421 -0.173 -0.082 0.106 0.309 -0.064 0.235 0.184 0.026 -0.029 0.246 -0.454 0.149 0.256 -0.075 -0.017 0.126 -0.072 -0.109 -0.068 0.211 -0.069 -0.385 -0.113 -0.06 0.044 0.036 -0.035 -0.358 -0.161 0.169 -0.029 -0.478 -0.218 -0.146 -0.068 0.08 0.058 -0.103 0.404 -0.259 -0.06 -0.086 -0.177 -0.123 0.559 0.1 -0.061 -0.055 0.22 -0.016 0.062 0.314 -0.047 0.085 -0.226 -0.014 -0.062 -0.263 -0.117 -0.125 -0.346 0.238 -0.209 0.051 0.076 -0.488 0.146 0.098 -0.008 0.252 -0.428 0.076 0.266 0.149 0.072 -0.099 -0.052 0.054 -0.206 0.258 -0.308 -0.067 -0.035 -0.154 0.088 0.302 0.069 -0.496 -0.015 -0.244 -0.118 0.126 -0.016 -0.327 0.076 0.085 0.444 0.096 -0.233 -0.235 0.289
listing -0.145 -0.081 0.196 -0.013 0.352 0.084 0.212 0.238 -0.182 0.051 0.23 0.141 -0.196 0.095 0.019 0.215 0.375 0.338 -0.043 -0.023 0.148 0.4 0.235 0.184 -0.015 -0.025 -0.053 -0.04 0.354 -0.105 0.205 -0.227 -0.462 0.024 -0.192 0.254 -0.361 0.164 -0.04 0.115 -0.118 -0.205 0.347 -0.052 0.023 0.251 0.165 -0.352 0.009 -0.15 -0.344 0.345 0.362 0.321 -0.223 0.342 -0.018 0.274 -0.033 0.337 -0.054 0.076 -0.055 0.117 0.264 -0.165 -0.106 0.253 0.262 -0.249 0.118 0.096 0.051 0.774 0.321 -0.951 -0.093 -0.005 0.198 -0.436 -0.097 0.129 0.384 -0.009 -0.243 -0.382 0.332 -0.355 -0.035 -0.119 0.13 0.383 0.457 -0.029 -0.231 0.321 0.239 0.044 0.156 0.139 0.202 0.134 0.017 -0.132 0.105 0.096 -0.083 0.168 -0.37 0.008 -0.055 -0.105 -0.157 -0.057 -0.329 0.125 0.294 -0.098 -0.219 -0.212 0.099 -0.279 -0.187 0.309 -0.089 0.307 -0.282 0.14 0.216 0.43 -0.221 -0.003 0.217 0.054 0.115 -0.311 -0.216 -0.166 0.085 -0.561 -0.344 0.344 -0.116 0.012 -0.015 0.058 -0.15 0.041 -0.363 0.142 0.176 0.188 -0.208 0.301 0.024 -0.263 0.05 -0.172 0.239 -0.163 -0.334 -0.01 0.099 0.006 -0.346 0.179 0.283 0.342 0.084 -0.219 -0.117 -0.162 -0.252 -0.069 0.092 0.346 -0.186 -0.294 0.223 -0.108 -0.27 0.153 -0.058 0.166 -0.29 0.225 0.247 -0.011 -0.276 -0.143 0.06 -0.104 0.098 0.05 -0.207 0.517 -0.183 -0.04 0.264 0.076 -0.19 0.334 0.055 -0.15 0.083 -0.064 0.282 0.258 -0.151 0.025 -0.147 -0.049 0.076 -0.251 -0.139 -0.195 0.105 0.267 -0.028 -0.133 0.167 0.237 -0.311 0.247 -0.119 -0.078 -0.016 0.12 -0.028 -0.455 -0.224 0.025 -0.054 -0.173 0.046 0.077 0.206 -0.069 -0.095 -0.182 0.145 0.165 0.141 0.394 0.349 0.028 0.023 -0.172 0.231 0.313 -0.002 -0.201 0.266 -0.254 -0.056 0.427 -0.014 -0.437 0.177 -0.172 0.047 0.312 0.12 -0.386 -0.033 -0.02 0.273 -0.011 0.173 -0.148 -0.104 0.205 0.222 -0.205 -0.152 -0.243 0.21 0.012 -0.11 -0.348 0.065 0.061 -0.262 0.122 0.126 0.233 -0.409 0.016 -0.055 -0.254 0.306 0.229 -0.118 0.118 0.028 -0.148 0.236 0.043 0.162 0.31
chemistry 0.158 0.044 0.53 0.545 0.183 -0.187 -0.12 0.134 -0.223 -0.285 0.022 -0.214 -0.176 0.14 -0.593 -0.317 0.436 -0.015 0.139 -0.023 0.048 -0.295 0.073 0.065 0.333 -0.151 0.037 0.393 -0.289 -0.14 -0.319 0.199 0.074 -0.412 -0.149 -0.14 -0.168 -0.178 0.189 0.003 -0.306 0.218 -0.102 0.145 -0.351 0.057 -0.106 -0.399 -0.128 0.057 -0.307 0.467 -0.14 0.162 -0.17 0.019 0.228 0.016 0.226 -0.169 -0.003 -0.049 -0.352 0.236 0.038 0.021 0.098 0.197 0.115 0.146 -0.038 0.08 -0.082 -0.054 -0.242 0.263 -0.275 0.445 -0.229 -0.322 -0.622 0.062 0.04 -0.112 0.535 0.166 0.216 -0.071 -0.029 -0.324 0.154 -0.117 0.12 -0.266 -0.236 -0.155 0.102 -0.097 -0.192 0.119 -0.418 -0.149 0.146 0.288 -0.042 -0.051 -0.046 -0.491 -0.164 0.016 -0.104 -0.352 0.141 0.17 0.164 0.033 0.122 -0.197 -0.049 -0.325 0.295 -0.185 0.133 -0.014 0.148 -0.215 -0.033 0.202 -0.131 -0.083 -0.29 0.087 0.028 0.046 -0.069 0.173 -0.097 -0.123 0.452 -0.322 -0.475 0.185 -0.16 -0.391 0.007 0.311 0.102 0.211 -0.148 -0.089 -0.138 -0.106 -0.267 -0.154 -0.065 -0.097 0.265 0.132 0.026 -0.223 -0.214 0.306 -0.198 -0.276 -0.084 -0.19 -0.02 0.362 -0.052 0.174 -0.062 -0.08 -0.117 -0.162 0.261 0.044 -0.267 -0.506 0.029 0.538 -0.15 0.134 -0.098 0.118 0.075 0.464 -0.067 -0.021 0.027 0.136 -0.013 0.05 -0.349 0.186 0.076 -0.332 -0.176 0.004 -0.28 -0.103 -0.298 0.217 -0.307 0.327 -0.184 0.035 0.117 0.222 0.159 0.21 0.429 0.223 -0.257 -0.032 -0.295 -0.046 -0.175 -0.224 -0.214 -0.228 -0.102 0.268 0.365 0.205 -0.071 0.144 0.372 -0.003 0.027 0.157 -0.066 -0.202 -0.127 0.163 -0.244 0.143 -0.233 0.052 -0.031 0.162 -0.243 -0.054 0.122 0.078 -0.025 0.097 -0.02 0.163 0.349 -0.272 0.116 0.298 0.231 -0.414 0.031 0.168 0.177 0.027 0.003 -0.371 0.01 0.019 0.225 0.035 -0.023 0.291 0.081 -0.394 -0.509 0.247 0.265 -0.466 -0.161 -0.289 -0.008 -0.147 0.067 0.156 0.181 0.564 -0.178 0.127 0.177 0.156 0.078 0.079 0.159 -0.266 -0.185 0.105 0.0 -0.11 -0.258 -0.049 -0.373 -0.11 0.091 0.072 -0.127 -0.229
seafood -0.077 -0.022 0.537 0.229 -0.144 -0.28 0.209 0.238 0.119 -0.056 0.203 0.051 0.276 -0.003 0.318 0.171 0.155 -0.277 0.081 -0.011 0.105 -0.099 -0.335 0.077 0.084 -0.044 -0.129 -0.102 0.186 0.044 -0.321 0.024 0.154 -0.073 0.168 0.326 0.151 0.274 -0.231 0.198 -0.281 -0.088 0.092 0.152 -0.001 -0.212 -0.099 0.065 0.103 0.059 -0.177 0.018 -0.143 0.464 -0.294 0.143 -0.323 0.443 -0.157 -0.014 0.048 0.353 -0.322 0.044 0.495 -0.502 0.014 0.004 -0.192 0.194 0.162 -0.025 0.066 0.078 0.235 -0.314 0.051 -0.326 0.26 -0.553 -0.251 -0.076 0.228 -0.231 0.026 -0.428 0.269 -0.091 0.277 -0.091 0.02 0.16 -0.003 0.062 -0.118 -0.189 -0.27 0.007 -0.555 -0.122 0.197 -0.175 -0.334 -0.173 -0.107 0.246 0.351 0.145 0.023 -0.182 0.138 -0.014 -0.374 0.091 -0.006 0.288 0.074 0.003 0.294 -0.062 0.249 0.064 -0.194 0.056 -0.113 -0.198 -0.358 -0.175 -0.071 0.248 -0.408 0.316 0.023 -0.128 -0.312 0.099 -0.54 -0.126 0.312 0.011 -0.227 -0.191 0.121 0.156 0.071 0.562 -0.025 0.075 -0.139 0.085 0.159 -0.092 0.104 0.2 0.203 0.013 -0.035 -0.267 -0.202 0.08 0.162 0.2 -0.074 -0.01 0.312 0.359 0.029 0.115 -0.219 0.206 -0.07 -0.146 -0.607 0.352 0.52 0.366 -0.123 -0.369 -0.089 0.311 -0.217 0.313 -0.168 -0.265 -0.1 0.134 0.002 -0.041 0.099 -0.286 0.064 -0.059 -0.205 0.256 0.0 0.193 -0.002 0.137 -0.133 -0.12 -0.325 -0.135 -0.017 -0.009 0.082 0.256 0.171 0.375 -0.134 0.226 -0.246 0.226 -0.184 -0.211 -0.217 0.212 0.247 -0.187 0.043 0.152 0.347 -0.07 0.339 0.222 -0.276 -0.13 -0.091 0.081 0.095 0.039 0.016 -0.109 -0.174 -0.396 0.326 -0.167 -0.019 0.099 -0.211 -0.1 0.171 0.129 0.101 0.117 -0.206 -0.018 -0.235 -0.009 0.231 0.248 0.34 0.249 -0.1 -0.7 -0.347 0.107 0.132 -0.387 -0.019 -0.173 0.027 0.441 -0.298 -0.374 -0.08 0.147 0.245 -0.067 -0.32 -0.015 0.206 0.264 0.076 -0.416 -0.24 -0.398 -0.373 -0.074 -0.048 0.252 -0.075 0.135 -0.399 -0.215 0.154 -0.068 -0.023 -0.148 0.075 0.218 -0.039 0.362 -0.215 0.493 -0.614 0.162 -0.602 0.177 0.201 -0.182
mind -0.075 -0.048 0.101 0.034 -0.102 -0.003 0.229 -0.019 -0.306 -0.169 -0.005 -0.132 -0.435 0.013 -0.084 -0.048 0.045 0.187 0.447 -0.453 0.032 0.141 -0.057 0.284 -0.039 -0.183 0.135 -0.058 -0.106 0.058 -0.319 0.07 -0.257 -0.25 -0.047 0.264 0.112 -0.301 -0.112 0.027 -0.163 0.179 -0.014 -0.031 -0.102 0.242 -0.003 -0.095 0.209 0.083 -0.098 0.106 -0.101 0.136 -0.087 0.217 -0.107 0.198 0.118 -0.237 0.044 -0.073 -0.317 0.041 -0.08 -0.079 0.205 0.246 0.052 -0.029 0.235 -0.042 -0.044 0.218 -0.153 -0.12 -0.278 0.014 -0.028 -0.082 -0.091 0.101 0.312 0.073 0.341 -0.019 0.182 -0.198 0.239 -0.167 0.186 0.011 0.115 -0.192 0.044 -0.029 -0.236 -0.081 0.025 0.048 0.06 0.066 -0.069 -0.106 0.364 0.005 0.123 -0.133 -0.086 0.005 -0.126 -0.186 0.025 0.095 0.098 0.043 0.034 0.083 -0.295 0.165 0.221 0.141 0.069 0.16 0.0 -0.11 -0.123 0.213 0.198 -0.029 -0.054 -0.226 0.115 -0.121 -0.126 -0.074 0.097 -0.314 0.103 0.063 0.025 0.148 0.165 -0.021 0.189 0.013 -0.113 -0.023 0.015 -0.122 0.065 -0.008 0.084 -0.034 0.219 0.204 -0.088 -0.241 -0.041 0.122 -0.338 0.248 -0.178 0.103 0.026 0.01 -0.292 -0.178 0.081 0.089 0.044 0.056 -0.065 -0.186 -0.052 0.146 -0.058 0.134 -0.196 0.197 -0.01 0.165 0.128 0.13 0.198 0.483 -0.109 -0.147 -0.106 0.197 -0.034 0.03 -0.14 0.071 0.078 -0.169 -0.069 0.145 0.048 0.29 0.145 0.122 0.006 -0.143 0.145 0.151 0.083 0.216 0.054 -0.073 -0.084 0.196 0.023 -0.033 -0.094 0.138 -0.012 0.014 -0.325 0.047 -0.047 -0.196 -0.085 -0.402 0.032 0.197 0.185 -0.077 0.079 0.048 -0.133 -0.129 -0.085 -0.344 -0.135 -0.012 -0.115 -0.267 -0.168 -0.023 -0.175 0.307 0.156 0.252 -0.217 0.113 -0.29 -0.046 -0.057 -0.219 0.139 -0.081 -0.002 -0.11 -0.034 -0.054 -0.066 0.004 -0.061 0.11 0.002 -0.003 0.356 -0.231 0.355 0.114 0.322 -0.153 0.186 0.142 -0.002 0.061 -0.016 0.005 -0.28 -0.062 0.138 0.039 -0.057 0.405 -0.14 0.131 0.012 -0.026 -0.076 0.306 -0.141 0.056 -0.109 0.074 0.385 -0.226 -0.033 0.012 0.037 0.125 -0.157 -0.052 0.035 0.043
sex 0.155 -0.112 -0.085 0.319 -0.137 -0.157 0.196 0.15 0.192 0.033 0.184 -0.172 -0.674 -0.186 0.176 0.023 0.236 0.605 0.161 -0.168 0.358 -0.276 -0.049 0.523 0.429 -0.103 -0.119 -0.481 0.275 -0.166 -0.423 0.207 -0.142 -0.366 0.108 0.342 0.322 -0.18 0.068 0.337 0.146 0.375 0.221 0.348 -0.529 -0.0 -0.443 -0.282 0.161 0.045 0.146 0.099 -0.073 -0.11 -0.056 -0.224 0.321 0.055 0.434 0.097 0.238 -0.068 -0.008 -0.51 -0.073 -0.238 0.003 -0.163 0.057 -0.032 0.294 -0.082 -0.025 0.236 -0.33 -0.132 -0.208 0.215 0.24 -0.15 -0.167 -0.237 0.218 -0.0 0.118 0.369 0.448 -0.45 0.058 0.094 0.17 -0.113 -0.198 -0.084 0.319 -0.042 0.089 0.088 0.13 -0.153 -0.133 0.047 0.044 0.149 -0.06 -0.269 -0.017 -0.159 0.012 0.325 0.212 -0.095 -0.109 -0.084 0.147 -0.094 -0.021 0.06 -0.056 -0.02 0.418 0.493 -0.04 -0.007 0.353 -0.026 0.09 -0.032 -0.142 -0.02 -0.316 0.523 0.338 -0.279 -0.328 0.108 0.16 -0.304 -0.153 -0.069 0.114 0.453 0.1 -0.235 0.082 0.39 0.41 0.005 -0.265 0.116 0.382 0.061 0.041 0.303 0.208 0.054 0.134 -0.146 -0.163 0.381 -0.012 -0.247 -0.099 -0.131 0.271 -0.175 0.041 0.166 -0.122 -0.029 0.433 -0.21 -0.495 0.106 0.152 -0.182 0.061 -0.041 -0.145 0.091 -0.246 -0.144 0.101 0.497 0.072 0.503 0.09 0.205 -0.222 -0.507 -0.077 0.098 -0.025 0.105 -0.173 -0.17 0.191 -0.074 0.051 -0.093 0.226 0.315 0.134 -0.049 0.086 0.352 -0.206 -0.068 -0.255 0.08 -0.263 0.083 0.039 -0.007 -0.151 -0.1 0.096 0.263 0.044 0.239 -0.219 0.005 0.36 -0.016 0.004 0.27 -0.009 -0.029 0.014 0.039 0.143 0.128 0.429 -0.232 -0.192 -0.142 0.324 -0.304 -0.247 -0.223 0.064 -0.243 -0.151 0.536 0.308 0.298 -0.18 -0.138 -0.034 0.035 0.236 -0.02 0.283 -0.284 0.528 -0.063 0.203 0.105 0.002 -0.235 0.653 -0.156 0.054 -0.088 0.357 0.014 0.492 -0.213 0.212 0.428 0.098 0.182 0.455 0.258 0.26 -0.047 -0.131 0.123 -0.25 0.057 0.121 -0.141 -0.125 -0.174 0.426 0.166 0.046 0.069 -0.035 -0.081 -0.033 0.12 0.064 0.246 0.056 0.201 0.189 0.033 -0.026 0.148
food -0.216 0.192 0.037 0.029 0.151 -0.062 0.061 0.208 -0.123 0.042 0.183 -0.092 -0.005 0.078 0.113 -0.154 0.179 -0.053 -0.098 -0.061 0.037 -0.608 -0.177 0.147 0.253 -0.066 0.036 0.108 -0.004 0.448 -0.47 0.128 -0.243 -0.257 0.088 0.31 0.164 0.158 -0.02 0.03 -0.223 -0.102 -0.022 -0.156 -0.173 -0.206 -0.108 -0.137 0.094 -0.175 -0.342 -0.01 0.092 0.269 -0.305 0.134 -0.164 -0.136 -0.037 -0.042 -0.228 -0.103 -0.355 0.22 0.004 -0.475 0.12 -0.094 -0.253 0.267 0.033 0.256 -0.202 0.08 -0.094 -0.12 -0.278 -0.198 -0.118 -0.156 -0.025 -0.107 0.532 -0.07 0.292 -0.054 0.045 -0.192 0.27 -0.049 -0.06 0.016 -0.252 -0.227 -0.142 0.376 0.134 0.26 -0.095 -0.323 0.148 0.104 0.052 0.144 -0.078 0.2 0.426 -0.156 0.296 -0.244 0.161 0.074 0.266 0.147 0.11 0.226 0.161 -0.177 0.047 -0.366 0.23 0.435 -0.052 -0.007 -0.173 -0.274 0.163 -0.069 -0.311 -0.201 -0.097 -0.052 -0.068 -0.09 -0.064 0.065 -0.205 0.006 0.415 -0.078 -0.011 0.18 0.177 0.082 -0.011 0.141 -0.231 0.271 0.232 0.118 0.257 -0.057 -0.202 0.377 0.091 -0.254 -0.049 -0.075 -0.327 -0.227 -0.187 0.396 0.087 0.079 -0.209 0.021 0.034 0.155 -0.038 0.049 -0.026 0.325 -0.314 0.266 0.097 -0.082 -0.24 -0.102 -0.152 0.198 -0.225 0.066 0.011 -0.102 0.129 0.105 -0.086 0.122 0.025 0.155 0.057 0.313 -0.045 -0.077 0.072 0.176 -0.121 0.153 -0.09 -0.119 -0.16 -0.056 0.193 -0.083 -0.015 0.115 0.221 0.343 -0.093 -0.125 0.001 0.095 0.121 -0.001 -0.184 -0.01 -0.095 0.013 -0.347 0.153 0.154 -0.067 0.325 0.259 -0.158 -0.122 -0.023 -0.172 0.134 0.025 0.11 -0.117 0.193 0.099 0.25 -0.08 -0.291 0.134 -0.355 -0.101 -0.042 -0.206 0.036 0.085 0.078 0.084 0.013 -0.158 0.162 0.212 0.255 0.289 -0.32 -0.534 -0.118 -0.174 -0.027 -0.248 -0.285 -0.136 0.067 -0.089 -0.412 -0.138 0.114 0.553 0.264 0.131 -0.252 0.027 0.173 -0.153 0.061 -0.281 0.092 -0.135 -0.499 -0.029 0.097 0.127 0.196 -0.038 0.129 -0.243 0.169 -0.205 -0.002 -0.271 -0.004 -0.152 0.086 0.186 -0.135 0.219 -0.238 -0.265 -0.141 0.31 0.094 -0.075
precedent 0.224 0.097 -0.204 -0.382 0.407 -0.042 -0.017 0.177 0.004 -0.324 0.506 -0.024 -0.541 -0.183 0.293 0.091 -0.011 0.038 0.238 -0.539 0.025 -0.055 0.351 0.005 0.398 -0.424 -0.057 -0.446 0.17 0.106 -0.23 0.101 -0.144 -0.019 0.221 -0.247 -0.06 -0.45 -0.355 0.06 -0.374 -0.208 -0.111 -0.31 -0.18 0.278 -0.205 -0.15 0.004 -0.132 -0.109 0.016 0.279 -0.106 0.145 0.063 -0.151 0.15 0.064 0.308 -0.014 -0.029 -0.097 -0.046 0.427 0.107 0.245 0.176 0.096 -0.144 0.419 0.262 -0.295 0.13 0.135 -0.523 0.151 0.048 -0.119 0.228 -0.392 -0.002 0.011 -0.129 -0.093 0.043 0.017 -0.082 0.393 -0.233 0.29 0.255 0.291 -0.05 0.085 0.191 0.115 -0.363 -0.047 -0.16 0.033 0.039 -0.007 0.017 -0.241 -0.239 0.049 -0.377 -0.254 0.352 -0.394 0.12 0.154 -0.201 0.021 -0.057 -0.205 0.101 0.219 0.056 0.077 0.061 -0.031 0.03 0.18 0.065 0.024 0.323 0.055 0.027 -0.004 0.045 -0.168 -0.066 0.01 0.117 -0.056 0.065 0.288 0.034 -0.194 0.349 0.065 -0.214 -0.005 0.27 0.086 -0.112 -0.132 0.14 -0.116 -0.134 -0.173 -0.155 0.183 0.162 -0.287 0.055 0.188 -0.166 -0.403 0.351 -0.088 -0.042 0.018 -0.076 -0.52 0.208 0.404 0.2 0.036 -0.073 -0.252 -0.204 0.192 -0.213 0.113 -0.317 0.311 0.093 -0.114 0.062 0.337 0.343 0.23 -0.199 0.259 0.331 -0.011 -0.168 -0.04 0.189 -0.16 -0.117 0.133 0.315 -0.337 0.031 -0.043 -0.184 -0.025 0.202 0.246 0.139 -0.245 -0.155 -0.073 0.034 -0.313 -0.087 -0.141 0.208 -0.375 -0.32 -0.054 0.024 -0.051 -0.206 -0.018 -0.322 -0.038 -0.175 -0.166 -0.068 -0.171 -0.277 -0.159 -0.142 0.37 0.163 0.024 0.08 0.015 -0.147 -0.042 -0.03 0.026 0.249 -0.139 -0.1 0.019 0.359 0.336 0.118 -0.265 -0.063 -0.263 -0.174 0.35 -0.348 -0.037 0.209 0.308 -0.129 0.015 0.284 0.192 0.092 -0.156 0.066 0.005 0.039 0.333 0.04 0.253 -0.013 0.118 -0.212 0.025 -0.148 0.189 0.586 0.107 -0.323 -0.141 -0.044 0.287 -0.05 -0.274 -0.078 0.08 -0.251 -0.027 -0.131 0.406 0.065 -0.223 0.346 -0.117 0.132 0.084 0.024 -0.05 0.219 0.004 0.552 -0.052 -0.074 0.171 -0.327
series -0.262 0.081 0.005 0.125 0.096 -0.008 -0.18 0.16 -0.292 0.103 0.21 -0.116 -0.069 -0.066 -0.079 -0.106 -0.296 0.022 -0.064 0.032 0.145 -0.119 0.248 0.269 0.322 -0.176 0.269 0.118 -0.21 0.031 -0.026 0.014 -0.131 -0.189 -0.125 -0.023 -0.103 -0.176 -0.016 0.132 0.166 0.043 -0.129 -0.153 -0.212 -0.113 0.274 0.255 0.114 0.286 -0.088 -0.047 0.051 0.198 -0.099 0.1 0.009 -0.202 0.097 0.083 0.206 -0.012 -0.131 -0.331 0.093 0.086 0.133 0.386 -0.077 -0.168 0.097 0.174 -0.528 0.156 -0.148 0.081 0.13 -0.359 0.009 0.067 -0.118 0.096 -0.087 0.021 -0.105 -0.332 0.382 -0.137 0.055 -0.12 0.318 -0.168 0.286 -0.092 0.085 -0.05 0.209 0.033 -0.342 0.245 -0.103 -0.008 -0.048 0.125 0.25 -0.136 -0.086 -0.224 -0.066 -0.014 0.273 0.181 -0.149 -0.086 -0.053 0.088 -0.208 0.008 -0.555 -0.104 0.257 0.197 -0.237 0.095 0.075 0.036 0.041 0.33 -0.066 -0.083 -0.073 -0.043 0.026 -0.265 -0.195 -0.002 -0.083 0.147 0.222 -0.313 0.097 -0.114 0.117 -0.29 0.192 0.287 0.125 -0.089 -0.139 0.194 0.123 0.314 -0.242 0.264 0.066 0.12 -0.215 -0.086 0.136 -0.079 0.091 -0.156 -0.17 0.219 -0.257 -0.112 0.091 0.034 -0.161 0.036 0.174 0.088 -0.033 0.093 -0.066 -0.264 -0.072 0.098 0.249 0.223 -0.335 -0.081 0.179 -0.024 -0.196 0.13 -0.281 -0.031 -0.336 0.049 -0.161 -0.065 0.024 0.206 0.214 -0.128 0.024 -0.023 -0.105 -0.378 0.168 0.014 -0.245 -0.389 0.275 -0.055 0.146 0.107 -0.05 -0.214 0.251 0.061 -0.151 -0.068 -0.199 -0.103 0.075 0.049 -0.111 -0.076 0.207 0.17 -0.074 0.01 -0.064 0.351 -0.132 0.057 0.261 0.446 -0.35 -0.128 0.0 0.007 -0.146 -0.218 -0.1 0.202 -0.1 -0.255 -0.095 -0.228 0.198 0.044 0.194 -0.005 -0.349 0.037 -0.174 0.041 0.175 -0.116 0.381 -0.043 0.202 0.138 -0.016 0.011 0.214 -0.19 -0.151 0.054 0.077 0.098 -0.245 0.053 0.23 -0.085 -0.028 -0.017 -0.006 -0.28 0.115 -0.131 0.098 0.137 0.122 -0.236 -0.121 0.112 -0.264 0.121 -0.03 0.227 0.195 0.001 -0.02 -0.051 0.145 -0.249 -0.167 0.133 -0.068 0.109 -0.075 0.258 -0.204 -0.169 0.138 -0.048
kilometer -0.305 0.156 -0.012 0.055 0.024 0.381 -0.192 0.1 -0.089 -0.443 -0.007 0.027 0.09 0.181 0.332 0.113 0.284 -0.002 0.292 0.043 0.157 0.214 -0.136 0.162 0.132 -0.208 -0.234 -0.048 0.034 0.239 0.015 0.128 0.038 -0.042 -0.061 -0.07 -0.07 0.387 0.093 0.09 -0.019 -0.063 -0.052 0.074 0.121 -0.042 0.043 0.343 0.168 -0.114 0.035 0.098 0.077 0.03 -0.081 0.069 0.034 -0.187 -0.139 -0.033 0.379 0.171 -0.211 -0.023 0.383 -0.131 0.173 0.377 -0.179 -0.054 -0.088 -0.068 -0.036 -0.017 0.247 -0.026 -0.148 0.109 0.212 0.079 0.023 -0.277 0.058 -0.331 0.016 -0.266 0.238 -0.051 0.029 0.133 -0.093 -0.04 -0.115 -0.362 -0.048 0.343 0.142 -0.073 0.048 -0.084 0.078 0.055 -0.118 0.389 0.26 0.193 0.26 -0.267 0.269 -0.045 -0.001 0.024 -0.268 -0.142 -0.294 -0.181 -0.146 0.03 -0.113 -0.177 0.014 0.266 0.061 0.108 0.041 -0.079 -0.031 0.037 -0.368 0.198 -0.258 -0.04 0.087 -0.07 0.092 0.268 -0.287 -0.081 0.367 0.069 -0.118 -0.265 -0.125 -0.192 0.024 0.116 -0.279 -0.016 0.026 0.286 0.335 0.035 -0.076 0.403 0.037 -0.102 0.031 -0.224 0.042 -0.033 -0.112 0.083 0.091 -0.157 -0.098 -0.051 0.116 0.224 -0.444 -0.213 0.267 0.029 0.253 0.164 -0.047 -0.086 0.161 0.219 0.132 0.093 -0.328 -0.189 -0.187 -0.165 0.267 -0.02 0.137 0.119 0.113 0.152 0.272 0.209 0.162 -0.289 0.238 0.11 -0.034 -0.188 0.073 0.098 0.109 -0.075 -0.008 -0.038 0.046 -0.091 -0.037 0.149 -0.07 0.039 0.27 0.245 0.056 -0.036 -0.351 -0.296 0.099 -0.211 -0.091 -0.19 0.275 -0.048 -0.062 0.087 -0.067 -0.097 -0.059 0.174 -0.163 0.051 0.015 -0.148 -0.188 -0.105 -0.139 0.224 -0.236 -0.114 -0.056 -0.087 -0.107 0.203 0.097 0.391 0.056 0.228 -0.011 -0.159 0.277 -0.097 0.161 0.106 0.007 -0.147 -0.271 0.218 -0.023 0.387 0.036 0.041 0.096 0.08 -0.081 -0.209 -0.15 0.197 0.412 -0.184 -0.239 -0.059 0.298 -0.095 0.027 -0.079 -0.036 -0.179 -0.117 -0.016 -0.244 0.212 -0.085 -0.169 0.048 0.092 0.174 0.152 0.137 0.035 -0.16 0.056 -0.089 -0.333 -0.065 0.153 0.137 0.006 0.085 0.06 -0.035 0.019
grocery -0.073 0.011 0.337 -0.0 0.305 -0.193 0.214 0.128 -0.041 -0.009 0.098 -0.034 0.021 -0.032 0.141 -0.339 0.363 -0.048 -0.073 -0.119 0.452 -0.405 -0.356 -0.191 0.172 0.097 -0.084 0.39 -0.432 0.26 -0.355 -0.169 -0.266 -0.084 0.007 0.315 -0.011 0.137 -0.142 0.07 -0.111 -0.12 -0.091 -0.091 -0.294 -0.396 -0.18 -0.295 0.178 -0.126 -0.294 -0.059 -0.018 0.139 -0.352 0.192 -0.541 0.215 0.069 -0.218 0.255 -0.178 -0.345 0.49 -0.05 0.153 0.132 -0.422 -0.368 0.094 0.188 -0.219 -0.072 0.531 -0.28 -0.077 -0.112 -0.082 -0.044 -0.464 -0.047 -0.274 0.318 0.071 0.007 -0.118 0.178 -0.032 0.171 -0.051 -0.111 -0.292 -0.527 -0.084 -0.461 0.316 0.034 -0.039 -0.284 -0.306 0.352 0.37 -0.09 -0.061 0.044 0.314 0.293 0.045 0.246 -0.053 0.112 -0.12 -0.527 0.274 -0.016 0.042 0.1 -0.27 0.007 -0.117 0.286 -0.005 -0.056 -0.203 0.096 0.269 -0.131 -0.211 -0.052 0.042 -0.576 0.076 -0.093 0.083 -0.284 -0.071 -0.361 -0.087 0.232 -0.267 -0.376 0.412 0.083 -0.01 -0.066 0.239 -0.297 0.053 0.133 0.48 -0.005 -0.154 -0.155 0.217 -0.024 -0.139 -0.04 0.144 -0.398 0.168 -0.073 0.146 0.022 0.051 0.058 0.215 0.337 -0.136 -0.35 -0.184 -0.22 0.089 -0.471 0.085 0.339 -0.259 -0.172 -0.197 -0.075 0.269 -0.173 -0.052 0.284 0.02 0.197 0.241 0.318 0.273 0.223 -0.375 0.168 -0.331 -0.1 -0.27 0.177 0.13 0.034 0.247 0.276 0.221 -0.16 -0.168 0.282 -0.252 0.041 0.117 0.397 0.433 -0.218 -0.035 0.231 -0.139 0.185 -0.004 -0.212 0.404 -0.24 0.054 -0.344 0.138 0.225 0.177 0.341 0.111 0.134 -0.018 -0.195 -0.231 -0.035 0.09 0.349 -0.196 0.066 0.096 0.55 -0.104 -0.368 0.271 -0.296 0.05 0.106 -0.22 0.41 0.23 -0.145 0.17 -0.46 -0.194 0.038 0.063 0.143 -0.009 -0.137 -0.291 -0.117 -0.037 0.034 0.114 -0.16 0.06 0.057 0.105 -0.303 -0.136 -0.264 0.619 0.238 0.269 -0.036 0.154 0.094 0.229 0.001 -0.19 -0.159 -0.094 -0.495 0.162 0.118 -0.089 -0.17 0.068 -0.071 -0.069 0.004 0.413 -0.189 -0.453 0.139 -0.048 -0.003 0.005 -0.187 0.211 -0.125 -0.147 -0.412 0.125 0.189 -0.18
wizard -0.14 0.169 0.518 0.48 0.178 -0.014 -0.041 0.052 -0.326 -0.051 -0.275 0.134 -0.196 -0.151 -0.131 -0.104 0.036 0.205 0.246 -0.151 -0.118 -0.147 0.107 0.276 0.124 -0.348 -0.009 0.499 0.008 0.183 -0.411 0.071 -0.512 -0.151 -0.26 -0.217 0.101 -0.381 -0.105 0.059 -0.219 0.266 -0.069 0.045 -0.045 -0.047 0.239 -0.245 0.272 0.022 -0.297 -0.171 0.011 -0.114 0.023 -0.399 0.016 -0.027 0.251 -0.166 0.386 -0.046 0.143 -0.139 0.12 -0.065 0.017 -0.042 0.055 -0.077 -0.062 0.385 -0.445 0.279 -0.071 0.204 0.034 0.129 -0.014 -0.12 0.162 0.341 -0.233 0.147 -0.097 -0.094 0.381 -0.255 -0.102 0.087 0.098 -0.069 0.343 -0.092 0.172 -0.227 0.438 -0.27 -0.287 -0.125 -0.098 0.045 -0.129 0.036 0.4 -0.222 0.237 0.139 -0.118 0.148 -0.195 -0.125 -0.398 0.249 -0.034 -0.118 0.147 0.088 0.162 0.041 0.278 -0.223 0.02 0.129 0.396 0.181 0.033 0.139 -0.554 -0.509 -0.199 0.269 0.23 -0.419 -0.418 0.205 0.147 -0.133 0.204 -0.152 0.293 -0.165 0.224 -0.13 0.365 0.284 -0.131 -0.01 -0.044 -0.129 0.053 0.197 -0.223 0.245 -0.244 0.107 0.053 -0.269 -0.142 -0.172 -0.233 0.0 -0.327 0.398 0.003 -0.421 -0.034 0.116 -0.209 0.275 -0.133 0.163 -0.023 -0.124 -0.16 -0.027 -0.023 0.085 0.002 -0.139 0.115 0.006 -0.129 0.134 -0.121 0.183 -0.09 -0.123 0.049 0.145 -0.187 -0.073 0.459 0.306 0.129 -0.426 -0.115 -0.112 -0.002 0.049 0.008 0.035 -0.177 -0.045 -0.053 0.149 -0.1 -0.307 -0.118 -0.305 -0.056 -0.172 0.25 0.16 -0.015 0.028 -0.021 -0.065 -0.274 -0.001 0.168 -0.042 0.213 -0.082 0.24 -0.08 -0.078 -0.328 0.335 0.148 0.073 0.182 -0.402 -0.128 -0.006 -0.128 -0.086 0.363 0.222 0.446 -0.1 -0.202 -0.06 0.133 -0.007 0.119 0.259 -0.059 0.404 0.07 -0.009 0.178 0.38 -0.122 -0.18 -0.115 -0.298 -0.067 0.107 -0.029 0.086 -0.087 0.176 0.223 -0.279 0.326 0.084 -0.143 0.41 0.05 0.208 -0.069 0.111 0.023 -0.133 -0.006 0.118 -0.03 -0.612 0.172 -0.124 0.027 -0.204 0.168 0.145 0.356 0.013 0.231 0.085 0.014 0.152 -0.113 0.118 -0.294 -0.314 -0.249 -0.122 -0.091 -0.052 0.065
information 0.132 0.081 0.132 -0.2 -0.27 0.241 0.076 -0.248 0.01 0.103 0.032 -0.095 -0.621 0.126 -0.021 -0.14 0.131 0.477 -0.161 0.024 0.407 -0.203 0.318 0.444 0.043 -0.037 0.383 -0.055 0.078 0.057 -0.111 -0.351 -0.413 -0.452 0.13 -0.08 -0.196 0.091 -0.038 0.26 -0.23 -0.003 -0.094 -0.12 -0.4 -0.053 0.006 -0.056 0.024 -0.012 -0.137 0.042 0.271 -0.011 -0.271 0.223 0.126 0.027 -0.126 0.071 0.126 0.106 -0.125 -0.043 0.218 -0.067 0.272 0.051 0.213 -0.094 -0.238 -0.138 0.078 0.527 0.1 -0.486 -0.004 0.045 -0.05 -0.116 -0.266 0.245 0.063 -0.027 -0.035 -0.062 -0.127 0.025 0.025 -0.171 -0.163 -0.003 0.012 -0.056 0.162 0.24 0.275 -0.062 0.116 -0.117 -0.237 -0.08 0.259 0.175 0.155 0.089 0.257 -0.021 -0.024 0.102 0.06 -0.202 -0.093 -0.017 0.03 0.357 -0.05 -0.489 -0.084 -0.275 0.429 0.069 -0.172 -0.061 0.159 0.213 0.152 -0.157 -0.356 0.384 -0.11 -0.16 0.044 0.063 -0.061 -0.058 -0.607 -0.18 0.367 -0.466 -0.128 -0.003 -0.03 0.267 -0.236 -0.176 -0.191 -0.327 -0.299 -0.36 0.228 -0.046 -0.105 0.018 0.157 -0.175 -0.178 -0.227 -0.173 0.089 0.056 0.037 0.007 0.277 -0.105 0.328 0.204 0.499 -0.008 -0.247 -0.12 0.028 -0.186 -0.241 0.179 -0.258 -0.2 -0.217 0.076 0.191 0.189 -0.136 -0.119 -0.145 0.282 0.063 0.107 0.307 -0.29 -0.228 0.085 -0.102 -0.189 0.252 0.208 0.19 -0.063 -0.099 0.001 0.143 -0.364 -0.078 0.184 -0.095 0.216 -0.166 0.188 0.08 -0.163 -0.005 -0.004 0.121 -0.049 0.234 0.08 -0.556 0.12 0.087 -0.199 -0.054 -0.016 0.012 0.018 0.172 -0.127 0.046 -0.059 -0.152 0.158 -0.204 0.346 0.209 -0.005 0.187 0.166 0.037 0.108 0.177 0.153 0.036 -0.089 -0.154 -0.147 -0.16 -0.027 -0.111 -0.442 0.105 0.273 -0.175 -0.235 -0.066 -0.221 -0.17 -0.012 0.059 -0.256 0.025 -0.335 -0.138 0.086 0.019 0.174 -0.25 -0.164 -0.167 0.282 -0.531 0.35 -0.011 -0.371 0.231 0.072 -0.184 0.047 -0.145 -0.148 -0.084 -0.217 0.059 0.174 -0.112 -0.134 -0.074 0.421 0.022 0.216 -0.104 -0.17 0.073 0.355 0.026 0.107 -0.64 -0.177 0.256 -0.28 0.395 -0.249 0.08
brandy -0.19 -0.005 0.206 0.162 -0.02 -0.17 -0.057 0.167 0.136 -0.11 0.061 -0.107 -0.013 0.204 -0.043 0.004 0.056 -0.043 0.099 0.038 0.016 -0.006 -0.126 -0.003 0.039 -0.218 0.021 0.283 0.051 0.126 -0.158 -0.255 -0.047 -0.16 0.042 -0.067 0.023 0.312 -0.135 0.147 -0.167 0.123 -0.448 0.274 -0.093 -0.229 0.044 0.058 0.161 0.095 0.04 -0.044 0.052 0.001 -0.258 0.159 -0.241 0.161 0.139 -0.079 0.039 0.265 -0.097 0.162 0.158 0.091 0.1 -0.002 -0.048 -0.011 0.317 0.091 -0.101 -0.118 0.023 -0.023 -0.24 -0.163 -0.005 -0.209 -0.186 -0.003 -0.026 0.169 0.024 -0.106 0.18 -0.059 -0.047 0.041 0.302 0.321 -0.226 0.03 -0.088 -0.032 0.008 -0.335 -0.144 0.135 0.066 0.11 -0.176 0.002 0.214 0.078 -0.058 -0.285 -0.08 -0.017 0.085 -0.342 -0.052 0.087 -0.204 0.306 0.006 0.117 0.183 -0.114 0.125 0.058 0.23 -0.28 0.037 -0.152 -0.125 -0.021 0.002 0.004 -0.058 0.24 0.107 -0.143 -0.021 -0.015 -0.309 -0.067 0.194 -0.102 -0.16 -0.061 0.025 0.176 0.186 0.188 -0.035 -0.004 -0.122 -0.164 0.07 -0.024 0.029 0.267 -0.008 -0.137 -0.052 -0.23 0.145 0.007 -0.116 0.046 -0.1 0.206 0.258 -0.13 0.096 0.139 -0.198 0.071 0.097 -0.161 -0.108 -0.197 0.12 0.058 -0.058 0.063 0.134 0.137 -0.192 0.025 0.041 0.115 0.141 0.089 -0.04 0.171 0.121 0.005 0.126 0.14 0.146 0.014 0.14 0.145 0.267 -0.101 0.192 0.206 -0.059 0.162 0.249 -0.104 0.354 0.011 0.148 0.166 -0.435 -0.175 0.087 0.045 0.129 0.08 0.016 0.04 0.016 -0.219 -0.09 0.029 0.226 -0.067 0.337 -0.256 0.213 0.069 -0.0 -0.161 0.098 -0.108 0.058 -0.397 -0.058 -0.447 0.094 -0.103 -0.1 0.075 -0.228 0.282 -0.083 -0.099 0.116 0.243 0.044 0.039 -0.15 -0.088 0.121 -0.191 0.15 -0.043 0.079 -0.361 0.108 -0.086 -0.138 -0.105 0.174 0.244 0.153 0.281 -0.255 -0.069 0.151 0.075 0.019 -0.071 0.12 0.109 0.184 -0.095 -0.038 -0.197 0.043 -0.129 -0.186 0.16 -0.187 0.134 0.299 -0.109 -0.193 -0.034 -0.143 0.202 -0.106 0.02 0.101 0.013 -0.092 -0.238 -0.189 -0.042 -0.31 0.053 -0.248 -0.156 -0.11 0.188
interview -0.378 0.239 0.058 -0.296 -0.07 -0.036 -0.21 0.057 -0.15 0.331 0.339 0.155 -0.218 -0.067 -0.183 -0.133 0.166 0.185 0.346 -0.04 0.305 0.158 -0.008 0.189 0.078 -0.062 -0.298 -0.103 -0.172 0.581 -0.799 0.009 -0.203 0.192 -0.113 -0.166 0.059 -0.059 -0.225 0.422 -0.109 0.137 -0.38 -0.316 -0.292 0.12 -0.227 -0.085 0.289 -0.015 0.176 0.177 0.113 0.015 -0.253 0.155 -0.134 0.234 -0.06 -0.007 0.241 0.159 0.045 0.162 0.133 -0.129 -0.002 -0.009 0.207 0.224 0.18 -0.14 -0.285 0.085 0.246 -0.423 -0.244 -0.022 0.005 0.598 0.119 0.202 0.241 0.274 -0.036 -0.077 0.233 -0.217 -0.067 -0.132 -0.196 -0.044 0.064 -0.147 0.063 -0.354 -0.22 0.257 -0.298 -0.029 -0.148 -0.039 -0.111 0.027 -0.013 0.208 0.021 -0.155 -0.235 0.043 0.352 -0.177 0.116 -0.078 0.029 -0.05 0.045 -0.033 -0.108 0.135 -0.085 0.058 -0.247 0.315 0.188 -0.21 -0.337 0.297 -0.127 0.203 -0.104 0.25 0.105 -0.198 -0.169 -0.036 -0.245 -0.057 0.303 0.114 0.149 0.34 -0.187 -0.077 0.209 0.211 -0.423 -0.045 -0.042 -0.169 0.257 0.018 0.036 -0.143 0.439 0.193 0.126 -0.038 0.259 -0.086 -0.243 0.14 -0.084 -0.325 0.116 0.072 0.161 -0.311 -0.075 -0.038 -0.135 -0.172 -0.09 0.065 -0.192 -0.016 -0.239 -0.302 0.023 0.309 -0.226 -0.276 0.076 0.005 -0.033 0.124 0.202 0.063 -0.364 0.066 0.118 0.025 -0.008 -0.258 0.198 0.341 0.084 -0.257 0.181 0.226 -0.187 0.351 -0.002 -0.208 0.431 0.103 0.041 0.439 -0.177 0.174 0.193 -0.207 -0.22 -0.1 -0.291 -0.161 -0.09 -0.211 0.172 -0.095 0.193 0.187 0.248 -0.094 0.261 0.284 0.058 -0.232 0.529 -0.221 -0.106 -0.005 0.189 0.19 -0.113 -0.094 0.273 -0.332 0.225 -0.063 -0.021 -0.241 0.394 0.339 0.114 -0.169 -0.074 -0.034 0.007 0.094 -0.134 0.044 0.13 0.168 0.181 -0.262 -0.307 -0.015 0.167 -0.084 0.019 -0.341 0.099 -0.07 -0.247 -0.163 -0.008 0.052 0.404 0.052 0.072 0.174 0.017 -0.023 -0.341 0.309 -0.021 -0.066 0.059 0.257 -0.199 -0.156 -0.015 -0.02 -0.183 0.201 -0.013 -0.03 -0.108 0.223 -0.003 0.268 -0.083 -0.208 0.013 -0.076 -0.022 0.088 -0.216 0.137
